1.075320392272845371e+00
-1.960168393924565322e+00
2.029904677237470256e+00
-3.203584720255064688e+00
-3.840462926285701961e+00
-8.517610235239193583e-01
-4.294187544977152271e+00
-2.008305142025863965e+00
6.189897992672868554e+00
-1.858556022330530855e+00
-3.189654317907877790e+00
-1.225670621068884358e+00
-3.227751939440513862e+00
-1.723787797706352043e+00
9.930819957399712461e-01
-4.123723832462239614e+00
-7.358647776080617042e+00
3.380985156255101209e+00
2.945751373616516400e+00
-4.863239179520540745e+00
7.778650100365102071e-01
-2.174117719683632988e+00
-1.399737238956568763e+00
2.454046239364525039e+00
-9.329137597459952191e-01
-1.865506046260141382e+00
2.932988875894561587e-01
5.261853069534732974e+00
-3.328595510846269701e+00
-3.159605549496749544e-01
-2.757085950837839583e+00
4.762675615184261524e+00
2.562090734202830067e+00
-1.402689522630440999e+00
4.902392242546516066e+00
-2.834393941015049267e-01
-2.706266438336572211e+00
-4.294576652457962496e+00
-6.852528234252952544e-01
-2.084652670172746802e+00
-9.279106438228895692e-01
1.961301744310514517e+00
-3.220830227452628591e+00
3.554909831410686949e-01
2.222896393088033218e+00
-5.121277954534011911e+00
-1.600725323736742201e-01
-6.573046599108772092e+00
2.855374915644997902e+00
3.757510577668477847e+00
-2.151990221666696623e+00
-7.015441774352255688e-01
-9.450589503460558038e-01
2.015001794531752655e+00
-1.998576338392171969e+00
-6.542483299319256096e-01
5.746870826187475245e+00
-2.134652673128738076e+00
-3.088882559150510687e+00
-2.568133321859969787e+00
-1.368965209708462583e+00
-7.711452406582347541e-01
-4.074960669025649906e+00
-3.257438262092112957e+00
3.871285012793477254e+00
-4.079925923469792437e+00
-2.622858765211061982e+00
1.550017728817382867e+00
2.659552259047709200e+00
1.446538587338608017e-01
7.758611945410780475e-01
-4.804494197310002157e+00
3.075755873946338426e+00
9.767470591961304738e-01
8.690738095294501253e-01
4.754317303940452710e+00
3.544350583269598509e+00
-2.807520734391057093e+00
4.683793722538714954e-01
2.857898168394263472e+00
3.711585384569423329e+00
-4.336472330762789262e+00
-4.521086223473700372e+00
2.316374413376322217e+00
-3.359845923985026683e+00
-2.107886705397784333e+00
9.414412955356691315e-01
-1.016082395973540442e-01
-7.562522496912668646e-02
-6.168902826336416290e+00
3.216787414519799437e-01
3.977540303188478177e+00
-3.858497959198175842e+00
3.279894878233855948e+00
-5.856501395180084835e+00
-1.236307544351260645e+01
-4.040244286392683293e+00
1.777665671448554807e+00
-1.279565626410057999e-01
4.282106780098309251e+00
1.393222430668022538e+00
-2.854636450476605081e+00
2.693617384206345555e+00
2.237180397215665639e+00
2.620767925488254768e+00
-5.447582935989767172e+00
2.613619246987051614e+00
5.275424419453907277e+00
-4.049675310379307724e+00
-7.530128713391934347e+00
2.315994189754123411e+00
-3.256242406694189295e+00
-4.027602918677455790e+00
-3.481571010942531519e+00
7.074728893525598750e+00
-4.523179010414645873e+00
-7.324212994274312827e-01
3.562021192698036076e-01
-2.996306960350339832e+00
3.991408309525676046e+00
-6.459228667883798458e-01
2.711034603980920554e+00
-1.767493539262033231e+00
1.150631272528923610e+00
-1.183329977979477476e+00
4.691474619014253555e+00
-4.200796538404405478e-01
1.007186063362495998e-01
-5.060815499675186402e-01
-2.860355405126278061e+00
2.231061801977782810e+00
-6.802829121113730615e+00
2.473611786803214141e+00
6.139667863228901901e+00
1.718354733962322300e-01
-2.756212619692757659e+00
-4.605921530796332597e+00
8.183546181119268903e-01
3.748397561482995854e+00
6.625508894648510783e-01
-2.485196124549204022e+00
4.230795539681354356e+00
-1.424667921345364796e+00
-1.597713201693553131e+00
-3.568474654992783712e+00
-3.492788636295052651e+00
-7.796613032690422607e-01
5.157581343595435186e+00
4.255834543827522687e+00
3.295327142022086431e-01
4.042602673644206668e+00
3.708299340302963820e+00
9.259655341103318893e-01
-1.991158086617246692e+00
4.556487892033496689e-01
5.507980444726347180e+00
-2.564670429842025090e+00
9.251149929524575821e-01
5.980094820937587041e-01
8.227222299350041013e-01
2.640310263580742944e+00
5.391752144968188221e-01
3.649290119057422732e+00
-2.319308890005366552e-01
-3.480585490831544782e+00
1.117182872235007896e+00
1.022958978672395158e+00
-2.144544473551810437e-01
-3.486489419293893111e+00
-3.495751638015438090e+00
-1.377072144647823126e+00
-5.262330467144235691e+00
4.085220701817809941e-01
-4.196062240139950106e+00
5.690561227856692383e+00
6.030721676759133176e-01
-2.132713085514507334e+00
-1.045632484356030290e+00
-3.112074843655997292e+00
-2.743707323186447056e+00
-3.752235640047052456e+00
1.088453670346248847e+00
-3.662783653983586518e+00
-1.709559557647819750e+00
1.913668524184016118e+00
3.312760344110980415e-01
5.631773206006190691e+00
1.248180897084856689e+00
-6.351728038343972038e+00
-4.214278944373919700e+00
3.470379779503636186e+00
4.053922753902900133e+00
-3.600697231523473096e-01
2.071336510008676246e+00
-2.646681832642995058e+00
-2.177502534961250902e+00
1.214339591647328964e+00
2.803562497680883725e-01
1.341080251792834188e+00
2.230021509968623583e+00
1.639760464462082235e+00
-1.541250976855701671e+00
2.888673955381697134e+00
1.347138748773097916e+00
-2.017893363787441885e-01
3.724257659730812353e+00
-3.854088679801028761e+00
-4.695176457978481821e+00
-2.917412725896322279e+00
-1.008177065332974687e+00
2.436053517530115009e+00
2.594461897987143217e+00
6.520479761214174275e+00
2.890792509322966719e+00
-1.056433429897578602e-01
-5.820398905880716178e+00
5.623514659647355085e-02
1.410530747493159209e+00
7.888616539335201461e-01
-1.048591117827877284e+00
3.217017979873759259e+00
4.646803093666643569e+00
-1.277361588962304673e+00
3.601763519202288766e+00
4.168320726681590954e-02
1.211039455202143289e+00
-2.308158901127624674e+00
-1.286190205261569242e+00
9.190691010287705964e-01
-8.643922682313471828e-01
4.025459867985092810e-01
1.911965254307512296e+00
-3.561325737681187320e+00
2.638655932397112380e+00
1.438522630049314133e+00
-7.322182351808683709e-01
3.171903080181601720e+00
-2.874992376398713745e+00
5.784762928470790766e-02
-8.527231224790785546e-01
-1.100221350639197349e+00
1.277726762839668684e+00
-2.597429877516045149e+00
-1.849716497752447619e+00
-1.468781283736295462e+00
4.608548521946567611e+00
1.074773643099856457e+00
-9.554779762966235657e-01
-1.805737295816791210e+00
-4.640218976857945488e-01
-4.570804954216696636e+00
3.806528548041257398e+00
5.670524935520870002e+00
1.550502148831897742e+00
5.459557355540959556e+00
4.856198073135546522e+00
-7.772487407952339833e-01
2.403442712609976439e+00
5.251171543150890741e+00
-2.945734162818400836e+00
7.177490992419352622e+00
-1.242513973801224081e+00
2.336183907234396617e+00
2.881966478047296221e+00
-1.619517610901937132e+00
