-5.514418317369756295e+00
5.129400565605179985e-01
-1.280102632795400375e+00
-2.133763211524227987e+00
-1.495733066010740631e+00
4.227071804503260033e+00
3.739067528473149160e+00
3.833603150291687189e+00
-1.575201746978674988e+00
3.000781217713464066e-01
2.582218987187594461e+00
-1.158956481059900401e-01
-1.531292569232024281e+00
-2.625511713852209716e+00
8.954870771313179212e-01
-2.468112302070611719e+00
1.925056106268929756e+00
-1.320138183930196885e+00
-1.120375945932753581e+00
2.401491323772136366e-01
2.059683576800765081e+00
7.607354689461371944e-01
1.770300039692105809e+00
-5.446357642794681375e+00
2.512674324382087043e+00
-9.247994937062247178e-01
4.134241814295329220e+00
-3.093574604475171963e+00
-2.252870040947164032e+00
-3.220553263390245835e+00
-1.237028608117602124e-01
-6.796845797597533156e+00
-2.190713099439348888e+00
-3.865385708593477521e+00
1.863918845270409630e+00
-5.003171733927709752e+00
-1.589903710658815417e-01
5.073134704519523197e+00
-6.553423001622206145e-01
-1.879623077364567241e+00
-4.480740300655173591e+00
2.155061178423637092e+00
4.439419083012238865e+00
2.642899379439591634e-01
2.315181174890043714e+00
4.938656695465973856e-01
-4.988945844685325426e+00
-9.440365948957399667e+00
6.156533421629678315e+00
4.784078030144961469e-01
-4.414044097178698500e+00
-4.435896966596820867e+00
-4.930224612470961443e-01
-6.243874773840129677e+00
2.063587669387350054e+00
5.341835395019340460e+00
-2.912664076970796323e+00
2.865641396588971546e+00
-1.377472284955762571e+00
-8.126637445207618882e+00
-7.017569039686810228e+00
2.218944540960496870e+00
3.332076111224768766e+00
-4.706947845367920102e+00
9.489454955256276802e-01
1.413180407486647638e+00
-7.628872712836010095e+00
4.966203159742687667e+00
2.719982506010691914e-01
1.189726534480294029e-01
-2.716711929517476420e+00
-7.402809544691435484e-01
-1.425475261652540349e+00
2.046894084139128545e+00
9.945478934902325374e-01
1.709435603084989097e+00
1.538682560877937977e+00
2.780288226772507643e-01
-1.596726484803940194e+00
1.061749400443711355e+00
-1.486786392067667606e+00
3.866167706299942219e-01
-1.404107603607984256e+00
2.788273014566023278e+00
3.639039061597181046e+00
-2.344732173749672466e+00
9.001873319716072741e-01
3.775646948745861486e+00
1.582688842461069667e-01
3.327184115559419730e+00
-7.262543842610080791e-01
5.442985280374390555e-01
1.976361327498069143e+00
2.414687823500037744e+00
2.058377045350317847e+00
1.574680133075360811e+00
1.330280803658033584e+00
-2.894976385002902664e+00
-3.146881060853448542e+00
3.855082794105084254e+00
4.804325412779880011e+00
1.964703673928550609e+00
-1.486241781414903151e+00
4.635926245454522032e+00
-4.049012510391517550e-01
5.220571227876525944e-01
5.057160316073416872e-01
-4.573832627586393862e+00
-2.198896507857687754e-01
-2.895881342619071930e+00
6.747728600332225657e-01
-4.413219225826556791e-01
2.361828604193620507e+00
2.096573724010832418e+00
2.680225742337338790e+00
-4.484707113092510355e-01
6.827783113938821202e+00
-1.011148167564456024e+00
2.774839964825795313e+00
-2.334178889956008085e+00
4.125318685140596742e+00
-1.324982731328759877e+00
1.097902359183068111e+00
-2.684644096766726662e+00
-1.904591317692265529e+00
-2.681586504552253558e+00
3.930990316722899003e+00
-1.850888811952391855e+00
-2.958704954467915593e-01
1.904418222347376899e+00
-9.662306020686728392e-01
2.171522418515887676e+00
-3.791173486867205344e-02
-2.176889100037249225e+00
-3.402249422060347417e+00
-3.702058848485070830e-01
-6.265997337718970384e-01
4.449828164279900911e-01
4.709332022631473325e-01
2.034728770949048471e+00
6.921627079543916317e+00
2.219539575675393284e+00
-3.576265803891934159e+00
-4.275496980062033714e+00
3.421981335623158316e+00
-1.997945143627899434e-02
7.035876055425847042e-01
-7.739251504051882780e-01
4.519633177024686255e+00
-2.665207793982149909e+00
-2.114073837810115375e+00
-1.693194053472169003e-02
-1.896485637296599025e+00
1.529568850288370196e+00
-3.070128700879394490e+00
-3.064194763339605387e+00
-2.491621851700474011e+00
-2.326142590318670766e+00
4.609806154796414646e+00
9.232018864619029319e-02
-8.337680698391697121e+00
-4.280850685173247960e+00
-5.443304717944912774e+00
1.331762614701683001e+00
4.456989613075915457e+00
1.216558472002709612e+00
8.532716343047420660e-01
2.521818182716493606e+00
7.352828449128647748e-01
-4.772777025434375098e+00
-3.391275793844710673e+00
-1.439553528228733725e+00
-4.445311942058316923e+00
6.614260446098989554e-01
5.501123913710908031e-01
2.251358639764628466e-01
4.891856594379836665e+00
1.927529342032672899e+00
-4.316964469741932930e+00
1.926783739809109663e+00
4.161636027666204996e+00
-2.801459524658414857e+00
1.982283568780060623e+00
4.329349303260646487e+00
-3.280781276137199942e+00
2.341389599739036598e+00
-3.708889168015598869e+00
1.048110832311649698e+00
-4.443616215011068959e+00
2.587337257298739868e+00
-1.639962406308691723e+00
-8.302297117969231754e-01
5.614612059868833605e+00
1.645489973725914767e+00
2.727461538625171933e+00
3.625078598171981303e-01
-1.492245663629940378e+00
-2.020312406979045683e+00
3.022882370509982763e+00
9.273154516348224297e-01
1.319268113151701671e+00
2.622326026614425931e+00
9.328203822562759484e-01
-3.266473419999366135e-01
-1.550449009555567859e+00
-3.909569448688069215e+00
-2.575035957393338570e+00
5.836904040172734565e-01
-1.703263251886927288e-02
-2.809227318748273472e+00
1.729994929075787891e+00
-1.450167412323781102e+00
-1.355346412720025207e+00
3.413316839003753822e-01
-2.932760159190618054e+00
-5.427550326268120173e+00
1.705167759196440702e+00
-4.118077853133532251e+00
-4.927656632627300581e+00
-3.411029736786461708e-01
-2.606895405701806778e-01
-1.001140220291160787e+00
-1.077631891615008497e+00
-6.412993491617149822e+00
-3.657558533944284651e+00
-5.176428811851838674e+00
-7.045071948823551367e+00
1.994384672435643990e+00
1.438274532392710636e+00
-1.952945465688644688e+00
-6.624161997460711326e+00
3.150884629671388382e+00
-4.842433532041604538e-01
1.449704533049896105e+00
6.271304185443225876e+00
2.620750334431003026e+00
1.690239758326172792e+00
-2.460253592510022624e+00
5.478740818891369990e+00
6.738844813372663722e+00
7.402233027131985832e-01
-2.012455766516506817e+00
-2.482525034452467416e+00
1.493683641624518055e+00
-5.622669931848853331e+00
8.392898802363878141e-02
3.761728135719671351e-01
4.750922004192971393e+00
-2.366308759690051389e+00
-2.383342395318009288e+00
-3.028764547423707043e+00
1.801556831208650067e+00
6.829059782462168826e+00
1.640593871471960119e+00
-1.596868330365225797e+00
-2.718594930175417979e+00
1.115668917882812305e+00
2.945853491636331034e-01
2.754003020018917169e+00
4.134784376935461303e+00
-1.223776345916608221e+00
-7.316607999295756670e-01
-2.372739270971101710e+00
2.752477195499420048e+00
-3.622146856905631651e+00
