-1.044857379955501919e+01
-6.576720461169614396e+00
9.142456866656161196e+00
-8.489445155723807090e+00
-9.785216611605280335e+00
-6.171120875851019427e+00
2.570310636962974460e+00
1.501162583857036026e+01
-9.628233117065477131e+00
8.325428683456923551e+00
1.514948192136042149e+00
7.023346454133371886e+00
1.803472800485529248e+01
-6.272876612529989515e+00
1.572048337995959066e+01
-1.289624144202128342e+00
-1.037457466163448672e+01
1.090951815530617353e+01
-4.595512662419748651e+00
1.593387655425564731e+01
-9.264440807936090039e+00
6.386838158044989555e-01
-2.406935028616664862e+00
-5.950670197055120347e+00
-1.522048051134008873e+01
-1.638819547308748525e+01
2.017485946833046384e+01
9.057698979981960719e+00
1.167192525923312907e+00
-1.064010370153845031e+01
-1.860909573703361630e+01
-9.821862073476577137e+00
9.975814262713162961e+00
-1.425613152549287044e+01
6.987072521140676784e+00
1.782336305518395037e+01
9.243064919064398310e+00
-1.623323209370699161e+01
2.211452568740355673e+01
-1.275148877038983608e+00
7.615468349619090027e+00
-2.304061377634392560e+00
1.005708619039901386e+01
-6.860958566417254545e+00
-5.244065647889759596e-01
-5.131734068730788856e+00
3.551941311752301988e+00
6.809633042846437334e+00
-2.101487787011941322e+01
-1.821006479363040143e+01
-4.604686333647998175e+00
9.633231816545144710e+00
1.173644634417638777e+01
2.087760479302443350e+00
-6.344667695042624622e+00
-7.968988624582533653e+00
-7.587916450562137705e+00
1.278846747896197655e+01
1.652152301937793766e+01
1.664871626828481155e+01
8.322207328748852717e+00
2.073794188205337719e+01
-3.179323355230827541e-01
8.051897965312006633e+00
-1.085678937440763114e+01
1.982657173568000974e+00
1.418255543354868209e+01
6.210367342531803558e+00
-1.240907659946275032e+01
-3.988534164358588985e+00
1.598590271559328002e+01
-2.446010753456221209e+00
1.729449134004829247e+01
6.613678149609222956e+00
1.722204422839186932e+01
1.000179894912240641e+01
-7.562400383326772779e-01
7.504363537700398545e+00
-1.282877197879436260e+01
3.105563708433001224e-01
-1.522074150684443339e+01
9.289937458457590225e+00
7.072592211445533295e+00
-1.993996743998801335e+01
6.829795464446757336e+00
-2.013130819271412264e+01
-1.886442067398163402e+01
3.972134869231449095e+00
3.143454035021839843e+00
-2.009695163021097386e+01
8.745380885673196047e+00
-1.456549953171349721e+01
-1.341258242902103603e+01
-1.904618977901368027e+01
-1.658028779620471482e+01
-9.421770877795667687e+00
-1.167925366450188740e+01
1.953026623225736813e+01
-4.092965674919974539e+00
8.125405951394570891e-02
-9.743194880002588931e+00
-1.624208927897453592e+01
-1.725756732420576611e+01
1.768584120587597397e+01
7.076572041542439351e+00
-6.818356920946904154e+00
1.950814100163526987e+01
-2.736710996832125709e+00
1.671436477335880255e+01
8.702251957806799609e+00
4.359780774226293953e-01
-1.258187794691075467e+01
5.496901435785117584e-01
5.336836878270966977e+00
1.213689735629248645e+01
-9.747039838993421412e+00
-6.849214697491640358e+00
1.541505342540059509e+01
-6.369573210561054744e+00
1.553007818793301098e+01
-1.647997129679867356e+01
-9.817854117837482297e-01
-4.428283559156047211e+00
6.096859401340933182e+00
1.272674161926449266e+01
-1.824532550462545188e+01
-6.019593215996909663e+00
1.925903368644710767e+01
-1.310134504927394161e+01
-1.017008959805254520e+01
-2.046409325723600858e+01
-5.874522248812794167e+00
1.934639313202618993e+01
-2.601176749855922399e+00
-6.846417233568832472e+00
1.266977268557040404e+01
-2.081505281119739692e+01
2.442040046723332747e+00
-1.607293826608828269e+01
-1.398537700865238875e+00
9.105711241602250539e+00
-8.873627579688576628e-01
3.427217296439017957e+00
1.483532339948806467e+01
6.315179185850583465e-01
-5.824729645940163181e+00
-1.801481928854819614e+01
-7.726625466101923578e+00
4.128347057183145985e+00
-4.802588561137273615e+00
-1.896366801395893731e+01
6.060983398752317619e+00
-6.298195166153957025e+00
1.247936526788105205e+01
-1.339945914769941293e+00
1.907252494812742682e+01
1.573218265695843421e+01
-6.324299913699491071e+00
-1.997985419162589693e+01
8.985373232536533195e+00
-4.755596218631670813e-01
1.591353981516479976e+01
1.037246043079034941e+01
1.694059881897755915e+01
6.951391426429717413e+00
4.413700598417358734e+00
1.047204428797818032e+01
-1.586672664034628610e+01
1.536346268960425654e+01
9.501422582558184615e+00
1.690596494654739246e+01
1.649891856848199367e+01
8.795236275165972728e+00
-5.673767337271753419e+00
-4.599172177108492576e+00
-4.000617588306310424e+00
-1.992155408199467104e+01
1.234675678464838811e+01
-4.352606524132271559e+00
-1.232637023113811026e+01
-1.517196848907710738e+01
2.963869458406938051e+00
-1.894742596002057766e+01
1.167151991033440162e+01
-1.580831167067944065e+01
-1.531754082686028084e+01
1.323036655859278099e+01
-7.520433680959688338e+00
-1.119460049059816953e+01
-7.569127222577453296e+00
1.306957716074309950e+01
-1.691071962859675537e+01
-6.378908624607626976e+00
1.559684315244937558e+01
1.473437588155679201e+01
1.821525202470188276e+01
-1.931266576715747618e+01
-7.085085370805765947e+00
-2.096111129282934193e+00
-9.047312829699770020e+00
-3.328916575358548791e+00
-1.530634239045149947e+01
1.857195900148269985e+01
2.716188772222526193e+00
-9.157086273451341185e+00
-8.080031182201680151e-01
-9.806233772831467022e+00
1.279686324367040662e+01
-4.394300822901953119e+00
-2.643620776202702416e+00
1.994800935458966862e+01
-1.633731514628801396e+00
8.284998653477744668e+00
2.849954591213985644e+00
-1.679105394464915690e+01
-1.191913930030330526e+01
6.416165935997115710e+00
-1.359292320794512676e+01
-1.416746487759580120e+00
2.644668606944065914e+00
-1.491109621814496755e+01
-2.332162823721226186e+00
1.843926642465093835e+01
-5.894437063194223114e+00
1.636947290648104314e+01
-1.082136387640763964e+01
7.110656831606380734e+00
1.003803551483015610e+01
4.105237922830596631e+00
6.064336373247346756e+00
-1.632620465473338456e+01
1.343227163219455633e+01
-5.945275432353787082e+00
1.693593277389677354e+01
-1.560477789334901999e+00
-9.418367711138024845e+00
-1.492281670867707888e+01
1.632389941229921604e+01
9.132890429628002238e+00
1.851283169883489776e+01
-5.567205138914645968e-01
1.485314479156213707e+01
5.898468699231862011e+00
-8.590267024417140851e-01
3.832906192060550943e+00
-7.303757803292543649e+00
-1.197835484533945127e+01
-1.006055404009432408e+01
1.901876394458346198e+01
8.057616865315967658e+00
-1.342677460618503815e+01
-5.303997215740381854e+00
-1.110949027287954038e+01
1.393203545464022852e+01
1.183785651790687155e+01
-1.118836242859586605e+01
-5.121083444663420359e+00
1.100170349001173875e+01
-4.302395915319594977e+00
1.901495881293579826e+00
2.000961029991184148e+01
-4.545951066891127823e+00
1.411001082694196640e+01
5.532659772383064833e+00
1.192260219087489403e+01
