2.067579961312676851e+00
-2.459754878162449199e+00
-1.099623973268480381e-01
3.365154297139153261e+00
-8.681067762852555658e-01
2.968063331499644519e+00
-1.490828185562147912e+00
-1.406345516771494886e+00
2.160335194625290223e-01
1.462064946229590934e+00
-3.955779390441802601e+00
2.258222093678693643e+00
-9.726904136233855969e-01
-2.567566245064047958e+00
8.048658915799615787e-01
-9.251145910061193689e-01
2.944158636411369212e+00
3.793228203443020696e+00
-1.544550091911300660e+00
6.065671985480530992e+00
3.662512763068342947e-02
1.327441495434215746e+00
9.761687297447646516e-02
3.066380431391442229e+00
2.335595724704378817e+00
-1.135792210889516651e+00
-1.784153641092035114e+00
1.000196695034545558e+00
2.567302968373986083e+00
1.834790349381253627e+00
-2.231685403398377066e+00
1.497978905551936801e+00
-2.985571535720510372e+00
-2.805146920631752305e+00
-7.913407565516272779e-02
8.537501207375579604e-01
-3.871792603846556435e+00
-1.599183592789049646e+00
-1.466650975525117806e+00
5.883090884909471185e+00
-2.368195705924968308e+00
-2.745415088898694123e+00
-1.106980935123089704e+00
4.256875485953486304e+00
-1.269122083879013818e+00
9.414444481239689910e-01
-1.273611482905204983e+00
-8.448199680115000554e-01
1.497512845534676229e+00
2.440214551157148470e+00
2.549966430827508290e+00
7.855514839479516009e-02
-2.321347219426027841e+00
-2.274400027357157406e-01
-4.442595083561620584e+00
-4.661131729509565780e+00
-3.259793210544903452e-01
1.011491074363181530e+00
-1.728547066785563802e+00
1.470565408169947519e+00
-2.460155085441739331e+00
1.534542605177674934e+00
-2.845061615579809189e+00
2.500899193186014724e+00
-9.540074337663972948e-02
1.984744438340705630e-01
-1.092942962793794770e+00
2.124195709162978840e+00
1.131823141394249443e+00
-1.439494363510636088e-01
-2.922636040724750917e+00
1.021576522481781879e+00
3.238268774538306527e+00
3.040469535354155539e+00
-4.670961574979298758e-01
4.155104211305954975e-01
-1.505477237001480617e+00
-8.820882589185075062e-02
2.756707370147440272e+00
7.901631941212798882e-01
-4.851081184882616526e+00
-1.312946866823500702e+00
1.159964873614125924e+00
-1.447868253371555669e+00
-4.245758308665374514e+00
-2.808564858985979740e+00
8.455410628983026644e-01
1.291912439074873076e+00
-1.928055009777262852e+00
3.680327836510315365e+00
7.118984729458099903e-02
4.246234083755443756e+00
-1.435184773100117273e+00
-2.784189851675151761e-01
2.064766878505968073e+00
-2.432794306472683132e+00
-2.023751841553716346e+00
1.288190569525422990e+00
-8.770212091459526071e-01
4.314430062526561471e+00
-2.741762323814441960e+00
-1.074354409923222509e+00
-3.456580382143031205e+00
-1.077709112254246482e-01
4.690756356572188146e+00
-1.201735103770444013e+00
-2.253153295724723837e-01
-2.288681868542261633e+00
5.406360563868820579e-01
4.054415864977571005e+00
-1.195422053414847419e-01
-6.606263749906593485e-02
4.374416912369040178e-01
-2.232707454298878069e+00
-6.172600176216314072e-01
-1.727846062493131774e+00
-2.044789357373750338e+00
-1.267958396473733984e-02
6.290720727293421799e-01
4.015910826650580523e-01
7.177658052757759366e-01
2.562120697447149986e+00
-3.427748366878093922e-01
-1.643189765096979338e+00
-1.840107959252406111e+00
5.119881774426614740e+00
-1.082476831432742648e+00
-2.676459749384993092e+00
9.316400152387116496e-01
-3.998572290530368445e+00
-2.674458485777186478e+00
-2.334815871932433229e+00
2.380500692934972573e+00
-6.448206322343684960e+00
3.535498701813851730e-01
2.211021035159948411e+00
3.110461791197562498e+00
4.556625310572234966e+00
-2.534627174971887609e+00
-7.622293105927817614e-01
-1.518162535234003130e+00
3.555351152422126404e+00
2.812049715230466873e-01
1.727359498987398823e+00
3.304705688715894762e+00
7.544026910030408040e-01
9.332185436448375837e-02
-7.292760550841501654e-01
-4.071626923639879436e+00
-2.241096425292609329e+00
-8.280793426226580323e-01
-2.268855783753845223e+00
2.128398569079857694e+00
-3.042089086183873636e+00
-2.446819086754278061e+00
-2.758999397605788051e-01
-2.189493291561681154e+00
2.889366806385974762e+00
1.331201654024017689e+00
-2.499700412935887517e+00
5.101559383899441080e+00
-4.371450979807103288e+00
-7.164814857487900035e-01
-9.173356127079385081e-01
6.315705166268465121e+00
-1.307250565461524738e+00
1.478202666914537389e+00
-1.338509943784732537e+00
3.864271644608793244e-01
-4.595573543150838880e+00
-3.044168931491706420e+00
-7.052496916561836748e-01
-1.401968359351622784e+00
-2.932023631871313540e+00
3.023618769634760284e+00
7.544466062246905080e-01
1.252239948326925534e+00
3.422582012101206494e+00
4.211869204959328705e+00
3.215040255138378988e+00
4.130124856674257217e+00
3.480655040012845092e+00
5.170793157892068059e+00
-4.417979631591286704e+00
1.427220339696183782e+00
-9.486568182188407361e-01
2.271037960006931922e-01
-1.193999098758855126e+00
3.021490851703188874e+00
9.891561596563347436e-01
9.965365675235099419e-01
-4.705775090939800620e+00
-4.589088284146822794e-01
4.586863276539238754e+00
-2.004082559655837592e+00
4.403744979108223490e+00
6.822928544837402187e-01
-1.547324762209862481e+00
-3.050415480612656438e+00
-1.699091189350345532e+00
4.729499967559886997e+00
1.230873063516747301e+00
-4.010077040165199946e+00
2.879889746276635076e+00
3.569251224058312744e+00
2.682505488815718042e+00
2.788249785915833723e+00
1.196665017780945917e+00
5.396918730823398569e+00
-3.265326080938399489e+00
2.464233134791998125e+00
-2.099209092212276584e+00
-1.215596649659716366e+00
5.472156743982737659e+00
2.240888537525946411e+00
3.044721736435345161e+00
-4.584311370642280892e+00
2.804802949199475037e+00
3.455155251461570209e-01
1.038108520597837980e+00
-5.991579386444720878e-01
2.174860057368429300e-01
-1.384290473199678573e+00
2.494773980316904005e+00
3.485134907341196353e-01
1.799088100803011514e+00
2.404886106582067917e+00
2.946687521244380825e+00
8.233509661140969715e-01
-9.144470372675121972e-01
7.200986149470794961e-02
-3.376146644759006943e+00
1.075593101825145892e+00
4.196553480558629090e-01
1.489025418511675802e+00
2.739561161729095140e+00
-2.131108774090307190e+00
4.353755776698245761e+00
7.029519737746519059e-01
3.755565613075669162e+00
-3.170181850223756648e+00
8.052523550114113471e-01
1.915280253536755017e+00
-2.928458670757153381e+00
3.238781708640583457e+00
2.855630732773772440e+00
-6.096372166290433547e-01
-8.638394989913182886e-01
2.931568089860623338e-01
-6.730752134597089986e-02
-3.768838415229544214e+00
8.772845155492434710e-01
4.432540056213222002e+00
5.571979600918044451e-01
-1.052100046250259435e+00
-8.782541711513767169e-01
1.550727777989816314e+00
1.096868901325525059e+00
1.969174104469153752e+00
-1.158680602733556997e+00
-3.665206456660018652e+00
2.193355348052546727e+00
2.549501162920225106e+00
-3.512157114703677863e+00
6.429494019073089817e-02
