3.088250473498988846e+00
-1.009006138861565560e+01
-3.352423533736558436e+00
1.261885699748824585e+01
-1.547037892972584316e+01
3.742899905856277520e+00
6.227318243911718065e-01
1.909763907417402251e+01
1.160493081198888277e+01
6.560839354478575913e+00
7.694873685622960480e+00
-7.447984934158787595e+00
-1.404960403163382665e+01
2.742258049244819418e+00
-2.182817054943912982e+00
6.512014060096973367e+00
-9.787953722949417568e+00
-8.770689839722933812e+00
-7.739241168661070702e+00
7.675505450155146292e+00
-1.745895350247867839e+01
1.383462850157655488e+01
-2.345570447777732603e+00
1.644435218311164704e+01
1.354714512353344169e+01
-1.242542069206871602e+01
-9.809756452828494844e+00
-8.112343836688667764e+00
1.776278516175358391e+01
9.513434568958711424e+00
8.463744664374818427e+00
7.025927814479400624e+00
1.610922989952278073e+01
-1.845595129882476115e+01
6.387661016747529175e+00
-1.512032452215657408e+01
1.765637343730842446e+01
-1.065675210053603195e+01
-1.125902155849203723e+01
-1.538446708785020789e+01
1.581620089064321988e+01
7.464200492841624346e+00
2.067583021141028432e+00
-1.920690428870701849e+00
9.395067499305015390e-01
1.529209594380638082e+00
1.046244490899264612e+01
-1.925387144428666275e+01
1.085624801142384754e+01
-1.135092809440967976e+01
-8.244771522851337409e+00
1.376327027954329374e+01
-1.409789110559257708e+01
1.565862172053478574e+01
-8.626049500327365394e+00
1.800380891774177883e+01
5.885537611949820835e+00
-1.496795570694517430e+01
1.590613325077146634e+01
-1.017445229298249654e+00
1.955504031216540994e+01
1.762722318002395383e+01
6.255891229516000074e+00
-6.148001024126649838e+00
-4.030327053371829393e+00
-1.966453208999842417e+01
3.584172265075030062e+00
-1.312149050700167585e+01
6.620802427496785825e+00
-1.968688577753526658e+01
2.587610462768019204e+00
1.789450888720541144e+01
-1.683420664358046537e+01
4.217733176630613201e+00
5.062339515763465414e+00
9.718856103549864400e+00
-1.524135648866683113e+01
-2.058596725467638500e+00
-1.320914919385496322e+00
6.933516452348279735e+00
1.312878969281520369e+01
8.559162897949004645e+00
1.932553892287148756e+01
5.854488684015064059e+00
-1.090807613975550439e+01
1.165659103539005148e+00
-1.147868082569965864e+01
5.880849581273560389e+00
-8.887437445701907635e+00
-1.222946068972643374e+01
-1.550846645942720592e+01
1.321057538692196509e+01
-5.303997950584861343e+00
-1.582910549595981098e-01
7.350473448934142340e+00
-9.276176835291717993e+00
-1.816777278872866574e+01
-7.684706248252528127e+00
7.681681556769772712e+00
-1.847980577508495159e+01
-5.207519962893357501e+00
-1.104262718581088443e+01
-9.676134546757392485e+00
7.497950526470198440e+00
7.023389312115718042e+00
7.834995074453287245e+00
-1.757546747998422276e+01
-1.759533413918226596e+00
-4.077238000415850827e+00
1.512368863062159718e+01
5.464243158224593166e-01
-1.822545284191299686e+01
-1.402460707212025603e+01
-9.339641423838829226e+00
-1.835603674803419949e+01
1.679334799081351193e+01
1.569983755152125937e+01
-1.206482893928524369e+01
1.408479094745987759e+00
-8.734586619469475011e+00
-1.551222505171212740e+00
1.228863625683145422e+01
-6.091009073015648534e-01
-4.330135087863220988e+00
-2.492946488643612124e+00
8.739708015605085478e+00
-5.201976388957040953e+00
3.947095057335823665e+00
-3.077184352997105243e+00
4.592694182259805302e+00
8.336182815582144912e+00
1.615197556793636480e+01
1.090082046588552522e+01
4.983235633969737677e+00
7.997102432039794984e+00
8.195738231143495867e+00
8.619691409032830265e+00
-5.385200019303726826e+00
6.683034658885892654e+00
-1.930134207201106733e+01
3.487047152291137042e+00
-1.062068526407435698e+01
-1.087206206938692254e+01
-1.356603453961089123e+01
6.852802492132330059e+00
-2.009900915648321984e+01
-6.023436454840060073e+00
1.200308706508842604e+01
-3.886142410079957421e-01
1.939599856262153210e+01
-1.495060586663812696e+00
-1.603243712972301438e+01
6.922231943781106622e+00
2.965891038188335660e+00
7.248744383799031077e+00
2.596499542049663933e+00
1.748002815614822580e+01
1.926913490074601754e+01
1.123367938984877057e+01
1.851805778311023332e+01
5.005230150454596405e+00
-4.506547862354817191e+00
1.326599652200641444e+01
3.739480489705331312e+00
1.071538300645266162e+01
-2.406071968914229586e+00
1.919449607619930021e+01
-3.704469434772685865e+00
-1.203470041135636848e+01
8.610941010501539594e+00
2.053888494448959268e+00
2.289616460524003472e+00
4.859072476772864135e+00
-9.103030517350704898e+00
1.774268344047951729e+01
4.026959891996524377e-01
-9.192839523834338777e+00
-1.927111617632542817e+01
8.259800662376056479e+00
1.915314984095154438e+00
7.659648223004651868e+00
7.356551765254129904e+00
9.769488425974351742e+00
4.963572735216890131e+00
-1.975773054547910945e+01
-1.266354894051390900e+01
-6.178858221847027821e+00
3.007833471909374445e+00
1.194438526194255701e+01
-5.108647409929542249e+00
-1.082834745974408897e+01
-5.848653225456164506e+00
-1.520288080361470584e+01
-6.901284411709787570e+00
-1.910808509743737460e+01
1.444186568917410618e+01
-4.210192164939383197e+00
1.861521231843087065e+01
-1.602352422114894992e+01
1.632200558642081845e+01
-1.327108561269565001e+01
-4.486788005707506244e+00
1.274626443957242827e+01
1.926581843154114893e+01
1.350725949094405109e+01
-5.921283733390971804e+00
6.064306006521423598e+00
-6.796650072269925680e+00
1.658230026215772868e-01
-5.755739445343420968e+00
1.501805004162123680e+01
-9.936450387134788675e-01
-8.225266773739328130e+00
2.476880734830150921e+00
1.774566392157225536e+01
-3.167936622676524205e+00
1.516852314170478699e+01
1.690195186587810927e-01
-1.399084464883419621e+01
-5.311650102140935026e+00
-1.641772224409739778e+01
-9.828229078887009251e+00
-1.695094496518528615e+01
1.624991579180808499e+00
1.894797017479101786e+00
-1.272839272356566021e+01
-1.740210762815715384e+01
1.439696257544731139e+01
6.358515071361847681e-01
-9.228996745859504358e+00
-1.466215432338119662e+01
4.478285617729190093e+00
1.844416935558611215e+01
8.506246154508184887e+00
-1.266567724905842596e+01
1.529207086418028716e+00
-5.892414427268933608e+00
5.909631580047860488e+00
6.443433928837082547e+00
-3.787790616405838140e+00
1.599989507803384292e+01
5.833864427322733803e+00
-1.023181009624809867e+01
1.752390576841461467e+01
1.236224505517912320e+01
-8.305676272523216497e+00
-4.549341847924443627e+00
-3.795683343979462165e+00
-1.520187635840793083e+00
1.524450135760625713e+01
-9.879340769210745776e+00
-2.310034653750143718e+00
-1.081764492114458465e+00
1.934296763192584123e+01
-1.134445039396658750e+01
-1.292747298171885717e+00
2.649963233263724627e-01
8.558104758174513549e+00
7.456156145056901607e+00
-2.519760034929967585e+00
-3.068939235344879890e+00
-3.966376133396265935e+00
5.392096293033119991e+00
7.576793969306594434e+00
5.831220610890824219e+00
