-1.864569500998259355e-01
5.090067020421560784e+00
1.619022646815465594e-02
2.311004629930788479e+00
3.397578295111526536e+00
1.607047719528588603e+00
1.194566320674786297e+00
7.806982952755765481e+00
-5.593574388705164324e+00
-3.724104868322050788e+00
2.305180484642930239e+00
-1.984320797335680009e+00
-4.923410969905539503e+00
1.445285086187429457e-01
-5.520101374944801798e+00
1.346301842695567963e+00
1.637346435513725940e+00
-2.796350426763798858e+00
3.824293313110899373e+00
-1.531660665052753112e+00
-3.709699260186739789e+00
2.043544171590522041e+00
-2.151701151434479264e+00
-5.774504294510117042e+00
2.889623712295259939e+00
-2.629004121291121709e+00
1.418431278309731480e+00
1.551732433371872388e-01
-6.001537986162519545e+00
-2.151418988152777434e+00
-1.633940177395081461e+00
3.777650014439593473e+00
1.759275831053868977e+00
-3.271714709560099799e+00
1.210656854311905617e+00
-7.709459095066473200e-02
1.787903705457184245e+00
3.403407772581014346e+00
-4.415552695958444573e+00
4.786318631470114493e-01
2.085279215022307397e+00
-5.120274260335780370e-02
1.262658515240638879e-01
-3.462805540995860909e+00
2.320621894396223794e+00
1.591407258770921818e+00
-4.137298707071160209e+00
-2.041215223509663446e+00
5.690664989527743245e+00
6.214511368865762719e-01
2.488240174283707695e+00
4.306328206527608060e+00
-2.917611534641590065e+00
-7.086397823595063983e+00
2.506814806034969312e+00
-5.094630164483983314e+00
-3.612182373289966053e-01
-1.958277710404177085e+00
-6.657143158027733598e+00
3.936499862685735263e+00
1.383469541114873413e-01
5.022336521279733290e+00
5.206025199759261923e+00
-3.349958221315987306e+00
2.219217679043503644e+00
-6.282442547826548873e-01
-3.901186126981340596e+00
-1.376772117980151311e+00
3.174319688357842839e+00
-3.416377880474599671e+00
-6.805954492463619943e+00
3.647271134044884455e+00
2.062746152643989639e+00
-2.916353547161177229e+00
5.482622443579973082e-01
-2.469097877993302159e+00
-2.531071746785191312e+00
5.440279262858614295e+00
2.359727713059357246e+00
-1.488029164121468240e-01
9.477608153167546012e-01
4.225573082967109428e+00
2.942382968415077737e+00
1.532219293114105652e+00
2.706609838369889331e+00
-1.673675915863392705e+00
1.753653403690002222e+00
-4.757977217791349744e+00
-9.855989660030570199e-02
4.660223766679514767e+00
4.758308452822356038e+00
9.194054236244841860e+00
-2.280757847574935937e+00
-2.331962872321298175e+00
-4.092911439894697523e-01
-7.466217448225095366e-01
-7.198883560534263815e-01
-1.774998971081826804e+00
-3.256944645075357414e+00
2.425234810051355883e+00
-3.501022331849517943e+00
-6.896313169470928983e-01
3.998751485960580609e+00
5.237867087019154155e+00
-3.828898055958072533e+00
-1.374800899743677141e+00
1.611174284280735280e+00
2.373347957315837586e+00
1.960026837518590526e+00
-1.371320729264883909e+00
2.383867164593614252e+00
-4.501480329955206194e+00
-2.014630150575911660e+00
3.921842811720734068e-02
-2.814001084392007357e+00
-2.356916663964814251e+00
-3.405436349959162445e+00
-3.775306225335394839e+00
-1.960949694515770503e+00
2.652488005243530456e+00
1.088233998764513988e+00
-1.579496795624249383e+00
-1.405013489100097823e+00
2.663113188495496608e+00
-3.984967857058294705e-01
-4.324266257305894534e+00
-9.152482663103301830e-01
1.554742800011200132e-01
6.179016255888456488e-01
-3.532569912200791862e+00
2.205673261816708752e+00
1.733447345270985984e+00
2.351003025410004277e+00
-2.505372421702685148e+00
-3.055828974643465923e+00
6.855424937601267699e-01
-2.155536981437835564e+00
-1.159640589685945189e+00
-7.134600629070168232e+00
1.981555794354398436e+00
-3.411985912871396298e+00
4.858745934635434471e-01
-1.997083208949636257e-02
2.528778920295831956e+00
-3.198632495431932732e+00
-2.542060139917514672e+00
2.090683705808491777e-01
3.091033819317229980e+00
-8.176943271989321360e+00
3.244253484060487747e+00
-2.198777719362913885e+00
-1.200457832665094315e+00
3.996756160000663360e+00
8.195180447270180579e+00
-3.418978690579485225e+00
3.478960346173864515e+00
-6.338652446358874037e+00
-7.113765842468915857e+00
6.465306038928949839e+00
3.553527417512073461e-01
-1.276418946879830152e+00
2.272285492789595907e+00
4.053839928769923162e+00
4.669744436218826067e+00
2.360954221095478367e+00
-7.862889095373152282e-01
-1.674010305554155753e+00
5.037571446421154064e+00
-9.582010161853584673e-01
-6.593250673752539814e-01
-2.049593504646576747e+00
8.673223850055756801e-01
4.552772453334863911e+00
-6.952053620880526807e+00
-3.246507921912608730e+00
1.136723836006548805e+00
3.988823650996731640e+00
-8.860989298709988304e+00
2.585917770652470082e+00
5.871104016828613270e-01
-3.017884232048666959e+00
3.246195553569908743e+00
8.151099541645230317e-01
-8.214264866233207396e-01
-1.563531569861777548e+00
5.275226957298259300e+00
1.900459187810538797e+00
8.596306860551942153e-01
-4.394727262251482136e-01
9.577867290252588539e-01
-4.327514775543717107e-01
-1.391886403283383311e+00
1.090851887502779283e+00
1.295949898545113443e+00
-3.136037150558220965e+00
2.164777600265900492e+00
2.932310773732274001e+00
-5.034575824176001468e+00
-5.236189574848924444e+00
1.942934146928958494e+00
-4.726595627868953819e+00
3.759246729007124088e+00
1.774910691294109721e+00
-4.487303494748525523e+00
-2.500575735566133329e+00
6.116943482813088195e+00
1.485594768609086902e+00
2.074891767057225778e+00
3.507982104381101029e-01
3.374031881182984804e+00
1.839964694509065302e+00
3.962920342873827106e+00
2.398336181838574888e+00
1.342027079465399619e-01
-4.500989091979663570e+00
6.446013737378610386e+00
2.560060149517495276e+00
3.066096394786700152e+00
4.339698171576165997e+00
4.808566115022783194e+00
-4.073950515255806870e+00
7.243224469176967606e-01
-5.567792987954791606e-01
2.372190282550915352e+00
-6.631436033858608692e-01
-3.406786605314904737e+00
1.855885978490523502e-02
3.553227178758505911e+00
-8.209302450524575967e-01
2.914773166260050896e+00
1.403901594197210390e+00
-4.909791917013259788e-01
8.000581634003300913e-01
2.013778268106127811e+00
3.279108239728154128e+00
1.807264368502695451e+00
-7.751859092043771327e+00
-2.264989932955451923e+00
1.469551141514454207e+00
-3.777414228943685170e+00
3.079907119095774082e+00
3.224190320075755789e+00
3.449950916472050544e+00
-3.536706844789601623e-01
-1.492689816853983498e+00
-2.864522204806868366e+00
-4.846224698704523881e+00
1.700520694951785261e+00
-2.820467932556455448e+00
-1.126677413288848850e+00
8.652562918791314672e+00
-1.128443194922595483e+00
-3.909814853602119555e+00
2.027585229776102338e+00
7.207367104396049662e+00
5.730266568898161328e-01
-5.243314466769092519e+00
6.849165411834291506e-01
-4.687637629455945643e+00
2.885849201559092414e+00
-3.455375525152038829e+00
-3.769799786036049927e-01
1.011067786782866129e+00
1.139112175813249195e+00
1.024003131662654331e+00
