-5.249259912318774646e+00
1.960591234652384784e+01
1.196779747667265248e+01
-6.495168361727253759e-01
1.568120278231493359e+00
1.113037202003675752e+01
3.049035610881225544e+00
-1.579286098882245915e+00
-1.255276749028869610e+01
-1.124548946156449958e+01
-4.902756014349527902e+00
1.385522904032218960e+01
-5.280013720513722753e+00
-1.361759664752043264e+01
5.363445861636796375e-01
1.163351519694024638e+01
7.793417164926555785e+00
-4.410786760272024765e+00
1.162501588923558371e+00
1.313705452528587259e+01
-1.313712878479788770e+01
5.874082758829205275e+00
-1.334378597770646557e+01
1.038781721889294296e+01
1.535723192323770903e+01
-3.725779883958716177e+00
-1.952697141943187109e+00
-1.506373330228742091e+01
-1.927194181878028711e+00
6.965377713652943115e+00
1.369128449675264747e+01
5.570897845522755354e+00
-1.263587561075048527e+01
1.423522423952952209e+01
8.796037405199690795e+00
1.758414567029698894e+00
-4.716994172675523345e+00
-6.836637533801944500e+00
-9.168885066609306023e+00
2.489136661149244922e+00
-3.401110602343755396e+00
-7.778268307857725716e+00
-1.791083996308949366e+01
-7.035264124878447767e+00
-8.313705171211382972e-01
1.063428822220752679e+01
-1.517859480047490450e+01
-8.270195275379016664e+00
1.741500844714976282e+01
1.224098088595866152e+01
-2.613373920180799281e-01
8.561773277622142686e+00
-2.535532031240722795e+00
-1.022353228245806989e+01
7.136127869010168823e+00
-1.724000340591851810e+01
-6.009341647874334669e+00
1.310661333577387921e+01
1.274815244646787349e+01
-8.855304318475610614e+00
-4.667069764268950927e+00
1.317962810913668292e+01
-1.438480650309098863e+01
-4.886549679850810790e+00
-8.601827247185108716e-01
-6.272849042304776468e+00
8.217204989640993773e+00
6.329193502362956636e+00
-8.962047379937096991e+00
-1.626578201942134783e+01
-1.959107425113953305e+00
1.306190470103670798e+01
1.665125150546704091e+01
-2.797862721375721229e+00
4.595998879285412286e+00
4.377378109383301741e+00
5.687187069022219710e+00
6.265646538123374576e+00
1.305796596739849136e+01
-8.645471564176954615e+00
-3.542203886834336402e+00
5.489625789230226260e+00
-1.084017407052106741e+01
-1.392818199338209162e+01
-8.796761648841657788e-01
9.056307340981192056e+00
1.165851609025833469e+01
1.242846796976750312e+01
-3.711604543644380527e+00
-1.090331000480955304e+01
1.074206370666461474e+01
5.542198710974654219e+00
-1.988555452691371528e+01
1.537823230241714256e+01
1.280162626803673653e+01
4.330431501945958495e+00
1.065204871367559747e+01
1.574099264756315719e+01
-1.280844197340918811e+01
7.076024175508426772e+00
9.674388857823169374e+00
9.466181108981924552e+00
3.802142533030111515e+00
-1.034739928204552584e+01
-1.507164507264534237e+01
5.411969597082478600e+00
-7.894165824557195066e+00
-9.294752523112800091e+00
3.610166356255722908e-01
1.418742481310414050e+01
-1.391195335848882664e+01
-8.312582887661687181e+00
-6.157600804283846152e+00
-6.843038579969098478e+00
-7.872907232549955836e+00
1.601866760757180685e+01
-7.775584502709264711e+00
5.580454777975140779e+00
9.753040122379406540e+00
-6.470282575474483266e+00
1.384237904360658966e+01
8.665732773485931517e+00
1.583872936163843725e+01
-1.522910658150291319e+01
1.282078665152322827e+01
6.249170336724263475e-01
9.132809373045025936e+00
1.169097778386892994e+00
-9.759995762108109041e-01
-3.650184993817962020e+00
1.609150082246424773e+01
8.997206512566965131e+00
-8.676041635797563600e+00
6.821013564954627739e+00
1.481554720393128477e+01
3.059418307235845624e+00
1.709639602775109779e+01
-4.738768769154048321e+00
1.502972524344352578e-01
1.467988092580606718e+01
-1.223757151711045665e+01
-1.081613804336156548e+01
-7.055140966544326098e+00
-1.869832234538158033e+01
7.786770140779823990e+00
2.099083422838191382e+00
-1.011284076148640665e+01
-8.531997429879581318e+00
-8.943234080949013176e+00
3.457901794674776319e+00
-9.806749199915145709e+00
8.733377567057337032e+00
-7.776809886117765913e+00
-5.386195844487416728e+00
7.709810595195772720e+00
-9.073220509707878634e+00
4.067063090039832574e+00
1.403970411865479839e+01
6.250182187089006192e+00
5.346973102306254333e+00
2.146267950839856997e+00
2.491146288379824103e+00
9.734380620774201631e+00
2.183722673304491657e+00
4.702448257400998699e+00
-1.154298019621257554e+00
-4.288104750092476714e+00
1.742344515616168010e+01
1.122243008547700605e+01
5.349622068129415098e+00
1.227758966977524402e+00
3.055760544645871768e+00
-4.482869106220968902e+00
-4.592847828572067748e+00
4.066494160952117909e+00
-1.920428180159247944e+01
1.739110960179280596e+01
-7.738221612446059439e+00
-1.987219508546803581e+01
-1.022296463407155187e+01
-5.686568492305316802e+00
-1.036865971573289258e+01
9.321210590973826982e+00
1.444998670592750400e+01
7.399092308810722329e+00
-1.506896759981616540e+00
2.103323496317181629e+00
1.455529874724187955e+01
3.329798750692081644e+00
-1.409696775963128479e-01
1.558475287166837830e+01
1.504173693268138123e+01
-3.980888059499813725e+00
-5.935195447843223171e+00
5.692467143295118603e+00
1.737467407561583954e+01
5.800068650721386554e+00
1.240042335221756531e+01
-7.599336170041778971e+00
8.709982637305376585e+00
-4.454318825406939020e+00
2.276937761142372896e+00
-9.132028433402089362e+00
1.009416883970350653e+01
-3.761682986580677124e+00
1.040247993677869687e+01
1.561770673804104348e+01
-4.487643725094927483e-01
-1.540567619892122408e+01
-1.332192762365333571e+01
-1.190063897570281082e+00
-1.482684873124181202e+01
-1.489351703292456364e+00
-8.263315298401161524e-01
-3.582797441925951176e+00
4.774201868388114001e+00
-1.839969196454542200e+01
-1.153026247090662704e-01
6.745823615590188282e+00
1.106999951181624020e+01
-1.272852146120862393e+01
1.204888008773898811e+01
2.323948953445105214e+00
1.001666494517828987e+01
-1.290208103066873946e+01
1.295746610855228553e+01
-7.222993259945796218e+00
-6.793785976362717527e+00
9.159297562115771285e+00
7.411777190996180487e+00
1.162450455992971676e+01
-2.041855213254750279e+00
-1.626653024521016633e+01
-3.157297362467000212e+00
-3.503511173174264304e+00
-2.249003701993410598e+00
-1.116058697234967312e-01
2.245070824867993586e+00
6.248808518585534877e+00
1.616100189772730644e+01
-8.273459950067579172e+00
-3.529979774879995258e+00
7.270020759051128323e+00
-1.498997196333470505e+01
-1.730874220653905837e+00
-1.467582512044580412e+01
1.493045749550229173e+00
4.299366591299905060e+00
-5.647978433548839661e+00
4.568230324046061774e+00
1.051386348691186434e+01
-8.507450672601962083e+00
-1.098426982782209294e+01
4.858068868464277656e+00
-1.302644978975093260e+01
9.102805560606942237e+00
4.422492570805936829e+00
-2.316759355671679010e+00
8.081424159939375684e+00
-1.141686327027302994e+01
-3.343735768659942487e+00
8.182168129744606944e+00
5.577508239271352863e+00
5.153231017315777152e+00
1.837900556041073941e+01
