-2.836633522398286367e+00
-1.746857406227573239e+00
-1.369588080917939488e+00
1.405268748412777935e+00
-4.206292534237123348e+00
-7.117198543817682133e-01
-2.229671914850823722e+00
-4.344483003109090191e+00
-3.853112304110124953e+00
-1.090999951186349515e+00
-1.821500689322850475e+00
-5.547618597049226441e-01
4.581728914510585504e-02
-3.444890338823735298e+00
9.587006287964625617e-01
-4.685443853624319033e+00
-1.389718387623873008e+00
2.215396196988329347e+00
1.975610431303121972e+00
4.840526456067124172e+00
1.158007961873531055e+00
1.315288529136172446e+00
4.474254981909102646e-01
-5.059491683202550050e+00
-3.229794053683953781e+00
5.036119204390239190e+00
-1.806834900423267110e+00
1.011430550857234989e+00
-3.318896008165896916e+00
1.734526442134557422e+00
2.472096581672960980e+00
-1.884793016464856752e+00
2.874759247818385433e+00
-4.451371526049864080e+00
-1.997305574867948907e+00
-1.425255389271080864e+00
-4.692401707608651051e-02
3.085086064107863457e+00
-3.952869143938936958e+00
6.284938137111161005e+00
2.154122360137647796e+00
2.849894892962097970e+00
-4.661777950755988442e+00
2.765525556126779527e+00
-1.381957178150798216e+00
1.560167152697775617e-01
4.338379008042471341e+00
-8.734112599326540050e-01
1.543593733258935563e+00
3.003545050013133988e+00
-2.511821604333406288e+00
2.605029741166802637e+00
1.110721208850177000e+00
-3.389790444335699870e+00
-4.841879001369881586e+00
-3.058849884738337188e+00
-4.371589864490707633e+00
2.705722850747257713e+00
-2.917738070479166002e+00
1.617512372204540139e+00
2.240773426542760127e+00
-4.330861210806101091e+00
2.551267205307437003e+00
-1.934009687392398646e+00
-2.284322113402803112e+00
-2.090302666885201610e+00
1.962901783674903200e+00
-6.825236741557467735e-01
-4.767048535737528958e+00
-1.597494657746990621e+00
1.861751684693945252e+00
-5.833826578316603673e+00
-8.691707904773148252e-01
-1.738259136482924516e+00
-2.832557272711510588e-01
5.610918041980050397e+00
4.686677621229164536e+00
3.625496166776468243e+00
4.919645244026973785e+00
-9.134307653255535620e-01
2.228166641365366907e+00
-8.804699775763809022e-01
-9.729845940133091675e-01
-3.471727175810380928e+00
2.469713680550266410e+00
2.037942947714397768e+00
1.886270119873928008e+00
5.149321334168109665e+00
-2.399655544004374086e+00
-1.842892453467946501e+00
-4.514502653174483626e+00
3.043827899412610449e+00
-1.753894345073614414e+00
5.441828971302808959e+00
4.014016159130777694e+00
5.647194032625796112e+00
-1.916586806438606017e+00
1.793112325481474922e+00
-1.449074572712549358e+00
-3.948755796261533391e+00
-2.395995744267065408e-01
1.302372273449816209e+00
-5.227864293649291838e+00
-8.337734230928907087e-01
-3.514672785293861956e+00
2.683986398548724672e+00
-5.929935424852772474e-01
1.561467145326131511e+00
-3.013179039183175867e+00
-1.586637930910180572e+00
-3.561943533633584735e+00
3.613104254277303529e+00
4.485113628578727418e-01
2.038767791582750455e+00
-9.763098231233613422e-01
5.417772677278746229e+00
-3.718139344253772904e+00
2.617991450090254801e+00
5.252624045016943910e+00
6.053363224877802651e+00
1.609711157600358877e+00
-9.734295670808139622e-01
-9.147167733821105484e-01
-1.307438498965147744e+00
3.349438899812323456e+00
8.318848633531233938e-01
2.332252157847344964e+00
3.549811143934618052e+00
3.708493645516618198e+00
-2.793242959845469109e+00
2.446313566999589462e+00
-1.617788383193660806e+00
3.401632203949191968e-01
-2.299184343678802644e+00
3.237947618504322111e-01
4.499112070663530361e+00
4.498299766725429194e+00
-1.946561205599117272e+00
2.328183418134757154e+00
-4.363621253906986297e+00
3.469010859496290067e+00
1.448398382374330495e+00
-1.048984941465901821e+00
2.561938226867981339e+00
-1.151650899373354742e+00
4.054511832303280272e+00
-4.171778183229740478e+00
-2.361800275853670750e-01
-4.594374242653184837e+00
-4.279885192421286177e+00
-1.137746137320760909e-02
-1.559376613568427272e+00
2.868262464951540913e+00
-3.798045174483616115e+00
-4.508199997272449799e+00
-7.362630440740512983e-01
1.750373554578410706e+00
4.003264813356489427e+00
-5.429167315725346166e-01
-3.534595311500250858e+00
1.941210055937505619e+00
-2.695116238317514679e+00
3.942168362265533688e+00
1.454747563081461026e+00
3.781965926191854788e-01
2.173714931347443535e+00
-3.086812105040822818e+00
6.720798491236406047e-01
-2.390180147649845210e+00
-1.385811342473391994e-01
-2.665461914583950875e+00
-3.419548426015250886e-01
1.875034420100823551e+00
-2.117116159034857947e+00
1.647907881939218999e+00
1.677703194226518590e+00
-5.033064643999025201e+00
2.482639130457404142e-01
-7.564759202464551580e-01
-7.756817506122593020e-01
-1.364143413404495631e+00
3.739562548782668028e+00
4.552394901521627624e+00
7.270098840120984285e-01
1.031270165040062414e+00
-3.712947913551611023e+00
-3.829178269920705979e+00
9.408314761831015893e-01
1.000081888296316279e+00
-4.047790128277650723e+00
4.640351420585481002e+00
3.206284181805579614e+00
-4.585844083282286654e-01
-1.302761442228700606e+00
-3.643442884338860654e+00
3.308018163830332981e+00
-3.842554554385949839e+00
1.708592764282938159e+00
5.604572962886182896e-01
-1.372519938373641502e+00
-4.492385895067241286e+00
2.406138556556966179e+00
7.589146132710871129e-01
-8.787058641328360231e-01
-4.415027860300510198e+00
-4.358351809199445093e+00
-2.305152301194908215e-01
-4.000971447479996002e+00
-1.008575903310841015e+00
-4.376540796513808118e+00
3.484684820219251300e+00
-1.663258795599033224e+00
3.704517689549240433e+00
3.392891214181518733e-01
2.627762301483516083e+00
-9.624052517697320175e-01
4.316643603500949666e+00
-7.722344789221480266e-01
-4.314566626297557939e+00
6.457808413259777391e-02
-5.313063521647503507e+00
5.733709800497608366e-01
2.916652281811336067e+00
2.874766674846337189e+00
-4.349635409701145150e+00
-2.859609175447617169e+00
3.736920360725486390e+00
2.122807603794700793e+00
-1.094823614305239889e+00
1.280428907104701697e+00
3.180376467565420029e+00
-4.194067823733059086e+00
-4.965755909535241486e+00
4.390969733495881044e+00
2.013137326885305001e+00
5.636895089035771633e+00
1.065186348788715875e-02
-2.527468740359239963e+00
-4.494942468905560595e+00
2.067177614505472327e+00
-5.478044350111526128e-01
3.484240177376670022e+00
1.089227801984788968e+00
4.945065990904929265e+00
3.637371585890399217e+00
8.067846962302672731e-01
-3.010090768386638249e+00
5.155121760488788674e+00
4.809378558196881315e+00
1.988865050723390482e+00
1.569638163240505202e+00
-2.587626191334954640e-01
-3.220631442723957072e+00
3.888466463966199882e+00
2.624197338147092662e+00
3.577535004589575074e+00
-7.734497831482467500e-01
-2.191260599978557266e+00
-5.089146599617045297e+00
-4.251964604842537909e+00
1.292776830886991357e+00
3.943508877213464103e-01
-1.166958028159054139e+00
2.884993807376453390e+00
1.602576194145406419e+00
