-3.216197442970009313e+00
-3.479651164726965118e-01
-5.727924985519068812e+00
-2.228956108239859457e+00
-2.347179479033996152e+00
1.851811414863885119e+00
6.004158325930543105e-01
6.745672244667472173e-01
2.299939391621999452e+00
-5.706027152566430782e-01
3.697945035701839522e+00
-8.175083434818835926e+00
9.745156663255272633e+00
-2.532280935544802603e+00
-4.846903086068712341e+00
2.854304943215508761e+00
2.133522669980396635e+00
2.408912147912842805e+00
-4.433697123319873867e+00
-1.574522144422893177e+00
-2.204633313674711381e+00
3.338334971762672243e+00
-3.244562971690528208e+00
-2.467918496112984972e+00
-4.598838419695226776e+00
-2.702157285716247692e+00
4.678916400415127796e+00
2.832072161981674885e+00
-3.613350571117395216e+00
-3.869212475403190687e+00
-2.319516905797358142e+00
1.947638506334086417e+00
4.881259951896572247e+00
-3.899048367542190530e+00
-4.118866965609374375e+00
7.865241243908416280e-03
2.410123710217815685e+00
-3.565642822350312824e-01
2.155302350941310952e+00
-1.169095702878922394e+00
3.706539103694780124e+00
-5.257005190479265844e-01
-2.770782995505908008e+00
1.884532972545240659e+00
-4.875080825164222476e-01
8.035913471673480357e-01
3.815972475324755919e+00
1.194423552075984940e-01
-1.526343403014483346e+00
-4.879313864651885879e+00
-3.466526378116635332e+00
2.223224394120064673e+00
3.085962595812556941e+00
-1.771165923206956538e+00
-4.202493346738415125e-01
1.652778549744741365e+00
3.456840431961372140e+00
2.102216406075687161e+00
4.101515123334216639e+00
-1.409091099504910627e+00
2.282590207282300554e+00
4.428641685729253652e+00
3.294876555516399907e+00
-1.074374887222435460e+00
-4.217157050429534593e+00
-6.369085837084085711e+00
-3.347959664161131332e+00
-2.617228714266767398e+00
-4.726445562096722952e+00
3.982432310535445996e+00
-1.673910232031163292e-01
2.458762207418879964e+00
3.949002532448001368e+00
-2.828913560659635174e+00
1.030157494239967608e+00
-2.527181499595556602e+00
4.809349500125343346e-01
3.929821639950439760e+00
-2.424685820642123346e+00
-6.315678061756501371e+00
-3.442058139864879518e+00
-1.555114216918354497e+00
1.351343555521450912e-01
5.377477993003237700e+00
-3.956037589839899837e+00
6.198754569586622409e+00
-5.068697458911651132e+00
-2.186482297056775437e+00
-1.888642566063766098e-02
-3.027964192139429578e-01
9.409930353290688054e-02
-9.947321625544730539e-02
-3.283796873428760144e+00
-3.487224128955023872e+00
-4.851011979118670103e-01
-1.111397107372254167e+00
3.722334086806588171e+00
2.484041338697256851e+00
4.417737550208201136e-01
-3.969164569139973509e+00
3.572207139545303667e-01
2.110759631400960679e+00
6.060081834724000416e-01
1.835932780424854582e-01
-9.900530197340617899e-01
7.662028641950568986e-01
-4.876640292514698771e+00
1.155574759298585885e+00
1.498812408969059096e+00
4.981575476211522080e+00
-3.879313571885049772e+00
4.859301027819617480e-01
-2.997528099440710303e+00
3.497883224608235864e+00
-5.061791715830959326e+00
3.365667712312987447e+00
-4.227942081319209677e+00
2.774346025461085663e+00
2.462004045369826422e+00
2.705610036216042236e+00
-4.720859178253664079e-01
4.325087201569153272e+00
1.584409915999503704e-01
-2.618958924780538933e+00
9.783339765311156455e-01
-1.017566957007454809e+00
5.937367176278288916e+00
-4.892904929002710901e+00
-1.292472230899996299e+00
1.641391471471276731e+00
4.618635844227137355e+00
2.436977232984995467e+00
-1.338433953899383688e+00
-4.273952167326767082e+00
-6.798822218083697244e+00
-1.502746192688581228e+00
1.678147103342129132e+00
2.540038757939665270e+00
6.073134576581292521e+00
3.740575154725030771e+00
1.548555519725197949e-01
1.107763935563953694e+00
-4.686224362390410958e-01
-2.467607947925427148e+00
-3.357346677275177882e+00
1.667742622317337720e+00
9.980547456786479366e-01
-5.098907999336248942e+00
1.413220060198448813e+00
-3.118228302650250860e+00
-2.607561799990616880e+00
-4.927622979211305765e-01
4.222825885467692331e+00
-2.144769264030160993e+00
3.988353640514765264e+00
1.952120948171984338e+00
3.416583246267829388e+00
2.306286474586407773e-03
-3.045395319707033366e+00
-1.980676322183940519e+00
-4.978124320252753421e+00
-3.997945778088676794e-01
2.121990056501913191e+00
-5.305339561304822649e-01
1.996958039455869027e+00
-3.295860758689831638e+00
3.410960886065808495e+00
-3.590840431396878252e+00
-5.549697302592940140e+00
-2.166730280870820646e+00
2.712600483688053288e+00
-1.883213719252103235e+00
-8.601655777220631460e-01
-1.295297574227247006e+00
2.587609394342478719e+00
2.658555554131164733e+00
-2.947825671144882698e+00
2.919844541850096675e+00
-4.027406566893837692e+00
-5.164019839571116322e+00
-5.068770034995391249e+00
-2.581588834208109695e+00
-3.605802779029048999e+00
-2.295175640206760903e+00
1.156781035139893499e+00
-4.101318693086293266e+00
1.015082374667760412e+00
4.092672683595466321e-01
-3.518060645268953124e+00
-2.779306891215616915e+00
5.668533295475065570e-01
-1.670688376918674500e-01
4.564852929304384688e+00
-7.044882744404883823e+00
-3.295669804240293210e+00
-5.781598850851239035e+00
4.273257242135772849e+00
3.998007789860631433e-01
4.659491068492398469e+00
-1.071111056433676545e+00
5.611979354631695394e+00
5.101639564537583382e-01
3.256530334380954628e+00
1.912144396016160375e+00
2.914394639835093059e+00
-2.823895506418207191e+00
2.871993905577339135e+00
-2.053749923349423412e+00
-4.594030389041003026e+00
-3.819596526171225026e+00
-5.746522263966868938e-01
-4.136283396037253368e+00
3.556291498152920560e+00
5.901048076013759580e-01
8.325553237542302476e-01
-1.481320340178116535e+00
-3.583512952548542074e+00
-2.132174802930428381e+00
-2.667400959195498800e+00
-3.549509306247252916e+00
-4.829021737890388799e+00
8.032470278816193909e-01
1.917034723350282022e+00
3.823051025544764503e+00
9.834097086951322231e-01
2.836395979956037205e+00
1.597862816098229555e+00
1.499534951969741847e+00
2.538382109194666780e-01
1.761259535013015132e+00
-3.155939720370055213e+00
1.988937244679924943e+00
-2.634666531335438044e+00
1.493460921844960154e+00
3.656513208570565610e+00
3.909175626516984359e+00
3.597986186416161303e+00
2.779182596309770048e+00
-6.209542126097154835e+00
-4.650385479496418561e+00
2.783883558176879713e+00
-6.860996952602020471e+00
6.194162682983533896e-01
4.181687098711594608e+00
5.642055401002782355e-01
-2.049457344024909311e+00
-1.355451250087407633e+00
5.177039270772498369e+00
4.342344730079328308e+00
4.381692777997041155e+00
9.880979934927144326e-01
4.076691618865973865e+00
-1.374988597560962367e+00
-3.390987180007686952e+00
2.719093646626481231e+00
-1.442206548551217826e-01
1.317198742352638119e+00
2.604918068955240695e+00
1.744078623694175434e+00
5.812037354653414312e-01
-1.556934334380848162e+00
-1.405716783999242603e+00
-1.154296693191542822e+00
3.396304703714574380e+00
2.900549896159196894e+00
