-5.862616872183753713e+00
1.006062338187900629e+01
-7.755756542826353517e+00
4.139479046433827136e+00
-6.000703698503119021e+00
-6.486924913502392087e+00
2.231437278937463464e+00
3.908466304578844253e-01
-1.517758167495774657e+01
8.873660585291261782e+00
-1.036682051941327387e+01
1.304164156691838272e+01
-3.512999823366037333e+00
1.626209023219738725e+01
-3.518778109622312744e+00
-9.063419501308228377e+00
-1.809583921528786998e+00
-4.839111702611169186e+00
1.068784598751146753e+01
1.261714584135059525e+01
-6.390366817497888263e+00
-1.190115407234580935e+01
1.830267304332571143e+01
-2.728488849563081686e+00
-1.018972086145074307e+01
7.141083674534058900e+00
3.472045255055925539e-01
-1.455874009741630815e+01
-6.464731728090327145e+00
1.940927959800462066e+00
-1.583119517751026439e+00
8.102994743092606811e+00
-4.612155521830987759e+00
1.574507067253328341e+00
4.021343166405086933e+00
-2.404451833628565571e-01
-4.916475987067652653e+00
-6.717608008465993485e+00
6.335774232336171430e+00
4.524446616434553370e+00
-6.561741782405791312e+00
9.336043505530021491e+00
-8.628677339823180859e+00
4.876803544497981591e+00
-1.423764698974082243e+01
-1.302174801406215821e+01
-1.028986966281189552e+01
2.183583540981840443e+01
-1.413220726709197983e+01
-3.291054085518361205e+00
-1.508887991239092052e+01
-6.363175581315495544e-01
8.929676874273861031e+00
1.749522641670456125e+01
-8.730719976291841933e-01
1.815477044965016162e+01
-1.741283951462364854e+01
6.007682668042885865e+00
1.474223576165351801e+01
-7.468751990498812887e+00
-7.466554571025326048e+00
-5.081385076530482436e+00
3.311877971573924384e+00
1.222962250420150276e+01
8.154475770877329666e+00
1.293981375137151169e+01
4.897926258456225534e-02
7.287323028161812211e+00
-6.476129284418749243e+00
-1.310894847825175180e+00
-6.435540473654739024e+00
-2.180142514926088460e+00
-3.721857605902516131e+00
-7.843965971938135162e+00
-3.906096988214219579e+00
-1.365190120955693232e+01
-9.491752504153470049e-01
-4.140872140123692091e+00
3.428347052011555540e+00
-8.372630057174244911e+00
-1.579395320704057193e+00
-2.175932572454247982e+00
9.681739775650704871e+00
-7.379492376017465771e-01
1.736959244492874888e+01
-2.036589960416219203e+00
6.047155538291872467e+00
1.713331298223565113e+01
1.069449256020185501e+01
1.811282598733048843e+01
-5.064109225621561627e+00
8.201798162321825458e+00
1.148079356768124981e+01
-6.752629406199273099e+00
-1.139941782293743522e+01
8.780189370720307807e+00
-9.884871191497525800e+00
1.211550527335096028e+01
1.206245557317601858e+01
1.553029483537883415e+01
-1.399061126434831159e+01
-5.128126549315904725e+00
2.021405566475405202e-01
3.447092104975934213e+00
1.100110781529942727e+01
-1.421449400855354384e+01
-3.094878405841353874e+00
6.165886128896630680e+00
1.463461369405445911e+00
-1.520444885909806132e+01
-4.697899746067909277e+00
-3.702868373938596469e-01
-5.339755946447772433e-02
6.288835366013880268e+00
-5.609647947419063918e+00
-2.041270493015394205e+00
9.731570216038930354e+00
-1.403252140789144597e+01
1.206124921285532814e+01
-2.715663936539298717e-01
-1.209349245917458404e+01
-1.196978136842550455e+01
7.736403998184127495e+00
-1.539885291159232494e+01
7.350532899554757194e+00
1.898030365358295768e+01
6.849369385983827829e-01
-6.348989784044148266e+00
-4.142238749827492073e-01
-7.971734750442864836e-01
1.073031373528691290e+01
-1.424519375685901323e+01
4.125647315790244463e+00
1.845452104859756659e+01
5.119316872883901581e+00
2.002551215793528350e+00
-9.523553417712658842e+00
2.590194873258091945e+00
4.117753760752481007e+00
1.746702722528651552e+00
8.348722450407668916e+00
-1.505666504461670385e+01
-1.081102915761620942e+01
2.354077182237449328e+00
1.500981700750030257e+01
-8.460379301710506894e+00
5.709508909842512026e+00
-1.687501297275592194e+01
6.945874516210771787e+00
-3.651552450923619908e+00
1.842188161063482355e+01
4.553929366573141735e+00
8.271135251977025149e+00
6.334085932891143855e+00
7.419869010561772171e+00
-1.264487102232939009e+01
4.180132951093977756e-01
8.821188240394021163e-01
1.368010437478342567e+01
-1.018451735770593025e+01
1.707454669477621678e+01
2.066404778606074633e+00
1.798101386866703777e+01
-9.836277837527354961e+00
-6.459488298362676240e+00
-1.922924995221921840e+00
-6.316845704920457827e+00
1.576371823158243402e+01
-1.990234473341769394e+00
1.016774151583817787e+00
1.100957730745964191e+01
1.712193223325717639e+01
-1.649486418814596078e+01
9.387922789975620574e+00
8.672945731822570892e+00
-1.321237586704205214e+01
-1.006041614759328739e+00
-4.952688382757052921e+00
7.383548769640257969e-01
6.605141437786103964e-01
9.641927584985594990e+00
-6.051816495624524173e+00
-1.076810107531613170e+01
6.640254562743265865e+00
5.183459057076804655e+00
1.259041058540366720e+01
4.779724884594035439e-01
-1.241758958074293240e+01
-7.351367654022916476e+00
-1.015158820389591376e+01
7.920546199058161596e-01
-5.580501688575148833e+00
8.839409055891435329e+00
1.624899026531983992e+01
-7.691993077782330879e+00
1.492792927573088591e+01
2.254147012022616803e+00
-1.208720868753894351e+01
-8.450086905815389349e-01
-2.379588886938595493e+00
-7.762238670923983008e+00
9.624062548284454621e+00
1.712460084319623155e+00
-1.097128606128684503e+01
1.087428577549202657e+01
-1.603507608843769106e+01
-1.744470721573145866e+01
1.261565485830297817e+01
2.713474261205712335e+00
-1.035556823690935246e+01
-9.578329663297585839e+00
1.493182396185504501e+01
7.895265871539725033e+00
3.447264185176067475e+00
4.310428279397704898e+00
-9.460584095057715359e+00
9.890808684119443583e+00
-1.035084512763646103e+01
-1.402884161458597134e+01
-4.903257974165709854e+00
-9.175037337364109646e+00
-1.441050053682989684e+01
-1.409507460391784406e+01
7.373726079982323434e+00
5.959473298168338040e+00
-7.830626736428561330e+00
8.763942887369124080e+00
3.039711763854643145e+00
1.867018553332024045e+00
4.445582939013924317e+00
2.861490757212883373e+00
-1.401590703689408102e+01
-2.653120498457371967e-01
9.245838898969775954e+00
9.174028435968333284e+00
-2.037731541927170653e+00
-1.127381852016490882e+00
7.005654405759740300e+00
1.256939151575345548e+01
7.260176929300036441e+00
-1.050774744219584456e+01
-6.943705614936336978e+00
6.970270873794048860e+00
7.896845854392740449e+00
-2.593036434497373866e-01
-3.451772287909766757e+00
-3.381999149739983168e-01
7.614046351658295464e+00
-6.656719382272983765e+00
3.432408703523865512e+00
1.360375467459850896e+01
5.009085451990934246e+00
1.020765685040887583e+01
5.562273948642038945e+00
-5.409166554290593787e+00
6.898815800610949012e-01
3.444984567875183368e-01
2.345541031421865430e+00
7.599857214153725948e+00
8.035475478512537961e+00
8.235626990139362391e+00
-4.109491364064866481e+00
-1.149995829085158405e+00
-5.309608740701571961e+00
-1.734469375638635213e+01
