-7.036831505587659574e-01
6.520825940953614008e+00
5.451463715573821034e+00
-1.998483487201705699e+01
-1.228852490113178320e+01
1.557636108906307726e+01
7.458005721221832474e+00
-1.670076846656079539e+01
-7.776887716521466487e+00
7.414152368663646797e+00
-2.130185860017836319e+01
-9.464538118663895716e+00
-1.580616269870905377e+01
-1.376336060092604363e+01
1.201755736587955425e+01
-4.806123907881179491e+00
-9.974574812328311779e+00
-1.846836764830661792e+01
-1.643682126972952240e+00
-1.057914944094964937e+01
-2.092971250696992058e+01
7.807607367236583329e+00
1.043190962407688893e+01
1.238726154873747909e+01
1.465442807875673026e+01
-1.062654360020719935e+01
-9.272056780952539157e+00
-1.216893009176557072e+00
9.505674556597547564e+00
5.653708342104354356e-01
6.369688190238006698e+00
-1.935457513283903452e+01
-9.458759822760386626e+00
6.826254082050621008e+00
-1.746198175967262456e+00
-7.750012841135776043e+00
1.269317563570141871e+01
1.246952961736253940e+01
1.531809233900748080e+00
-7.168880647429249464e+00
-5.664225615540899206e+00
-4.747088494375437229e+00
-1.286430507514717547e+01
8.116365822872516844e+00
-1.081227792679529953e+00
4.429188300909377318e+00
1.132067219217617193e+01
3.635808739169091197e+00
-1.773045588199378031e+01
1.644896532601125561e+00
-1.823420672287644706e+01
1.512658123881442229e+01
8.535402004937433507e-01
2.582989715846043755e+00
3.682663522691951741e+00
-8.759210015667562743e+00
-1.835834621843597603e+01
9.173942285706715438e-01
2.279670544285290479e+00
3.660857320955902772e+00
-1.339556527132242536e+01
-1.167535110001882792e+01
-1.573533107693038779e+01
1.354091055422972190e+01
-1.550720298712834477e+01
-2.001914570363720003e+01
7.420070556271340045e+00
5.767661466910141144e+00
-1.711633189447219650e+01
1.238948820134137918e+01
-1.593508259213967193e+01
-7.422048220879462477e-01
4.725086391377010031e+00
-5.868510308119937235e+00
-5.475451464635254339e+00
-3.781408893487629541e+00
1.146665211541372642e+01
4.567509702586598941e+00
2.226006558686851733e+01
-1.720796417016789803e+01
5.629851483435498238e+00
1.068910668853314760e+01
-1.723014745845332740e+01
-6.377179664672135040e+00
-5.107521397078727432e+00
-1.349625333714578090e+01
1.132461602645815191e+01
1.501582743479466231e+01
1.408509806065087488e+01
1.581342317556356214e+01
-7.375779438957186684e+00
-1.148970780973908390e+01
-1.167920933743765133e+01
3.221342708446194303e-01
-2.015443135568565580e+01
-1.145977118231544800e+00
5.275544163627805538e+00
-7.878341570450998477e-01
-1.319921391733447003e+01
1.547602211881266321e+01
-7.522752980571479897e-01
3.541852311798073583e+00
-1.604210892902201380e+01
1.502341928630928969e+01
-9.922116843615137682e+00
-4.464434506168299954e+00
-1.327573607639305031e+01
-1.820277149764661928e+01
1.827927126235681143e+01
1.597731110760629925e+01
1.694982512447027645e+01
-8.377964110943729281e+00
-5.473404387202310817e-01
-8.305985917216132108e+00
-1.001791938916318792e+01
-2.535524888840386737e+00
-1.162370993731757096e+01
-1.278350494717935604e+01
2.625020474277198090e+00
-2.205382901541177887e+01
1.303593264930402995e+01
-5.668581014280817065e+00
-8.535403031983429756e+00
-6.887976181440769174e+00
5.145316249545251353e+00
1.104384785602132091e+01
1.217094403558105675e+01
-1.164975172969618811e+01
2.286336725041114093e+01
7.268525276598824192e+00
-1.990707110993340123e+01
-7.688808073445081881e+00
1.260438232991750773e+01
1.768836410106805701e+00
1.911206742791712898e+01
-1.494702806888260049e+01
-7.472822912300410847e-01
4.291236437139920312e+00
1.396774979261108829e+00
2.036373089201696018e+01
1.821850159948002146e+00
-4.151071307663869447e+00
1.406191628882620037e+01
1.730573245015792239e+01
-2.016517446584953532e+01
1.880397192324082667e+01
-1.759616411440383743e+01
1.842700596091213683e+01
-1.322614226164529327e+01
-1.648225348696964909e+00
-1.407005779657142952e+01
-1.536065633106334616e+01
-1.557413075258240731e+01
-9.650389136505779675e+00
-1.892945680697127742e+01
5.299069501308918184e+00
-2.631992409918380904e+00
4.435911185059836725e+00
1.044803719655798702e+01
1.233679609655380816e+01
7.453522175910166858e+00
-1.395520727637787139e+01
-8.119797737237513857e+00
-1.873841369717654359e+00
-6.191974393339532590e+00
-1.440193480830739503e+00
5.750296881472488408e+00
5.633096144364803770e+00
-8.730623423357851465e+00
-7.899431558860015912e+00
2.105822153957814891e+01
-1.085677066752489317e+01
4.697797998806222175e+00
-7.374873615431607465e-01
5.637631159070391362e+00
-6.012358964024331343e+00
-2.027012144502267077e+01
1.660676744735850008e+01
-7.241168549536618926e+00
4.048737254299029864e+00
-7.159267804938006741e+00
1.655742924958191509e+01
-1.846812639112899745e+01
-5.071675687821527667e+00
1.710115037436150587e+01
-8.067837185870780914e+00
-7.837081219570980473e+00
-1.010078183521389761e+01
-1.083429345787140541e+01
-9.025868366830820833e+00
-1.837725388800533821e+01
-1.122936984923259907e+01
1.424519599948196813e+01
-7.634573783366967348e+00
6.966141028778633171e+00
6.446303052029924707e+00
-3.178065010500080056e+00
-1.448750669043291595e+01
-8.470237857621135902e+00
-4.105304727829917510e+00
-1.157199413112301478e+01
-7.835203967939650127e-01
1.618241478614145024e+00
-6.104197308798364752e+00
5.632427544696028576e+00
1.238531278062142604e+01
5.670635668000898022e+00
-1.799868750913867288e+01
8.030891402342783536e+00
-1.852762904066572247e+01
1.048239690152796122e+01
9.533863172371338734e+00
1.646899247248443032e+01
-4.980185868890002254e+00
-1.769844800590571410e+01
-1.277334703961970774e+01
-9.055879738185343086e+00
2.123286767746158432e+00
1.424699834856631497e+01
1.049562135979099153e+01
1.202741206110774463e+01
2.046443867774209480e+01
-7.035399426776877130e-01
5.922886393463187460e+00
2.943208245097678422e+00
-2.841583951246609896e+00
-1.811273674773656595e+01
-1.653209621706979249e+01
-1.269205502681827724e+01
-9.835488994612557434e+00
-1.557792462159516056e+01
4.788219530762777842e-01
6.001177321137076248e+00
1.807924874639940782e+01
-1.041730398868026519e+01
1.165792164549684173e+01
-1.469306417072695714e+00
1.860204625986262794e+00
-1.259630495634422154e+01
1.211144643664574749e+00
1.612980343582515630e+01
-1.784935677469692550e+01
-2.016751682328988160e+00
-2.114655766605576304e+01
-7.812000552265385700e+00
-5.436737556440336405e+00
-8.760641836428002094e+00
-5.139909572120774373e-01
-1.808105119532279659e+01
-6.866260874853705509e+00
-1.628656173272715790e+01
-3.118656483281305292e+00
-1.273732818803622102e+01
2.092538638821702435e+01
1.069256843514493305e+01
-1.585254503232014400e+01
-5.487131019177072133e+00
1.929679004797533537e+01
-7.965451975986341360e+00
-1.464951931310196365e+01
-1.443834870960497874e+01
-1.927122963614074536e+00
1.384792362474459582e+00
1.264692524893459336e+01
7.790426807273571619e-01
