-2.938441811016223149e+00
-4.309674276702177842e+00
-5.337491562320670013e+00
-1.134778792828003091e+00
1.718530397952043876e-01
2.328628181796514873e+00
-2.220453949866866061e+00
4.017440831027837334e+00
-4.795143810816693275e+00
-3.738941485760183814e-01
-6.130885533995474868e-01
2.634165067684593353e+00
-3.862277390481793304e+00
-2.121130395763018317e+00
-3.984191027499840221e+00
-1.047176765191265790e+00
-3.287485181746105045e+00
1.624312589329712342e+00
-3.412837549484866617e+00
4.323466307503898598e+00
1.480553465488283482e+00
1.014539095506628463e+00
7.338926454713883274e-01
6.416274215692587823e-01
4.661522470607794233e+00
-9.808237498497059947e-01
1.394694114906845916e+00
-7.070022154645705381e-01
1.850380669756093166e+00
-3.209011803256917705e+00
-3.469184541837911251e+00
-2.741852063972245901e+00
-3.491868864217962942e-01
-6.257979667764076659e+00
6.594061105000403877e-01
-3.308714586993069862e+00
1.129704029520607333e+00
-9.131621563428359289e-01
-2.064783223827520331e+00
-3.466924882546892128e+00
-6.187272805221067706e+00
-3.324232049186543136e+00
3.690720802869879691e+00
1.727418919089437788e+00
-7.725700838733658982e-01
4.331153918133001213e+00
1.708885216368368987e+00
-4.426579387690204648e+00
2.395491486113215940e-02
1.808132076598006455e+00
-4.423835622231151454e+00
-6.101578042846149685e-01
-7.056001561236605601e-01
3.144989057811987010e+00
4.308436230652129550e-01
-1.744417327836690568e+00
-1.884538031393364621e+00
1.324055089563608956e+00
4.484884902014358410e+00
-3.784257516924224074e+00
-3.100873164660024051e-01
3.802710239902730827e+00
-5.330909251181446429e+00
-6.742532081072492023e-01
-1.440642338749559714e+00
5.028875669016168004e+00
4.268203542124334504e+00
3.505121735375348102e+00
-2.209501775134244728e+00
-6.585462390201975325e+00
-3.731056370364922437e+00
1.041199847789814115e+01
-3.983619908658319275e+00
-2.330526484716911817e+00
-4.087810410651093740e-01
3.238483244526720317e-01
-2.221968418665893896e+00
-2.653415679890206214e+00
-2.456961358040596455e+00
-8.106536290964595493e-01
9.501288153767190048e-01
3.034447838755076621e+00
4.167516524809881773e+00
-3.323198383587232740e+00
2.588269649129541605e+00
4.461159959549823029e+00
5.838783327584001981e+00
-2.945953896699503360e+00
-2.545153866058630143e+00
-2.068479031015325875e-01
-1.254324281075957170e+00
4.945511581396918821e+00
6.292146764805710113e+00
-2.694084506227291342e+00
-2.134775244977721087e+00
5.229850394272972380e-02
-1.008055232221405917e-01
1.440043647248883563e+00
-3.319732195383402917e+00
-2.810627493483998096e-01
-3.869505496243761833e+00
1.832564836922076612e+00
-1.191474893933088364e+00
7.591144748296663192e-01
1.855553473206606574e+00
2.935433879866061968e+00
2.012818229719477436e+00
1.803867541232085259e+00
-2.202718313431123676e+00
-2.227792977628805016e+00
2.589178842902111644e+00
4.956178646391734333e+00
-5.795485312534093936e+00
1.134289410398284126e+00
1.850103621376724572e+00
3.668918708208930290e+00
-1.475255702920829970e+00
-2.025710916002390061e-01
1.287989858528368226e+00
1.569805341795841525e+00
-7.257438930956247036e-01
-1.448371662511041436e+00
-3.160241235898459067e+00
1.778440435904662831e+00
3.053257155848674298e+00
-1.036075118823047925e+00
-3.333808366346153740e+00
-4.245789034624017688e+00
-3.400042242766418532e+00
-1.572583971584398110e+00
-4.044922625430665164e+00
3.218450119178330571e+00
1.608407262721123665e+00
-1.379557154372249794e+00
3.671475400408317213e-01
-7.921245540365942084e-01
3.189409092358251652e+00
-4.210268170658595377e-01
5.304215511177173603e+00
-2.947306756841646003e+00
-2.443188893110569637e+00
-8.026402745735151945e-02
2.793286867119845196e-01
5.789401194990472455e+00
4.041765022786804273e+00
-2.529391664385769456e+00
-1.567294046860673751e+00
3.130445620532911644e+00
-3.103509956696186123e+00
-1.085522195676607682e+00
8.041941305923768768e-01
2.441593808581169700e+00
4.363037255292161021e+00
-2.049627417858164782e-02
-5.801523698365178561e-01
3.017480006621386490e+00
9.929367444239269869e-01
-2.842249949954520183e+00
-2.254158905257459100e+00
-2.923218261407837026e+00
4.846867278769171783e+00
-3.454870252942501274e+00
3.663696151928729772e-01
-6.336010070248606851e+00
7.140954389964401794e-02
-1.535865220540179932e+00
2.759452875540573835e+00
7.646056479788591043e-01
1.909396046108363443e+00
1.731993903079693364e+00
-1.169606652796760127e+00
-4.181552250621335176e+00
-2.188856916708640910e+00
-3.834755978320889547e+00
-5.605441615905178310e+00
-4.140499118284435731e+00
1.579534412203748683e+00
-1.151761215477217437e+00
-1.536203028391227576e+00
-2.358298495824111995e+00
1.782295802569602516e+00
1.849731739271128550e+00
1.336376815982510458e+00
2.474409202371135041e+00
2.380085101426109073e+00
-3.949493107884356480e-01
-4.739597028386183908e+00
-2.139809870279795856e+00
-3.588273406843841329e+00
-4.653360277669227330e-01
-4.383957670854746524e+00
1.114762572213852998e+00
-7.229828251251694482e+00
-1.753460960413434577e+00
-3.515284658748734525e+00
2.506450215034426776e+00
2.312700290968953798e+00
-4.353687847999841765e+00
-3.354773678627640976e+00
-7.785348263141285141e-01
1.845331765426123649e+00
-2.915921367002500264e-01
5.093981098476245251e+00
2.152388088926603160e+00
-5.495673596518610982e-01
-2.197299982538657659e+00
3.841447645523128784e+00
-1.552689968378632157e+00
1.381655354769812938e+00
3.820227151578445834e-01
1.628300571301357857e+00
-1.370762086793261725e+00
-8.850861184357041722e-01
1.872820447668859245e+00
-1.625221598408874979e-01
-1.668413747420602444e+00
3.717178789376976322e+00
-8.397051697015889715e+00
-1.828490589132664823e+00
7.817290477808270799e-01
1.586784394603155013e+00
4.594878402336956214e+00
3.981478288663776954e+00
3.745684051949180748e-01
4.153772242762452938e-01
4.841509867945916312e+00
8.202707425569732980e-01
-3.111011447954303843e-01
1.019485673802464687e+00
3.693546240587712415e+00
1.493078537559591856e+00
1.877182422408899320e+00
-3.849848754479445745e+00
4.732710000526278549e+00
-9.659994941900966747e-01
-1.448549178562975825e+00
-1.264044832893099990e+00
-9.628735272398296630e-01
3.556960254895245477e+00
3.881339386971113026e+00
-3.870736689077042963e-02
3.656031081436011299e+00
1.712224219146625925e+00
-3.363604384220248100e+00
-5.791528684705413710e+00
-3.474935663294929089e+00
4.930845568137480761e-01
-2.122629503427497233e-01
-3.379603890474580097e-01
1.491570359263766354e+00
2.861915469591573835e+00
2.375034599721165485e+00
3.851963564969692833e+00
-1.375228512310692208e-01
2.991973871112165284e+00
6.008838516713302269e+00
-2.602993575804269266e+00
1.026469707078316640e+00
2.921255532465647065e+00
7.246860693022605382e-02
2.878595170649417501e+00
2.447218939311988084e+00
-2.002380840696750486e+00
1.440580651637936249e+00
-6.851739880590208553e-01
