1.157002882084043627e+01
-1.082603608345351986e+01
-3.663668850443145608e+00
-1.028983508484021669e+01
-1.465136075822216633e+01
2.628122900410351459e+00
8.830102780151385389e+00
6.088454935167300519e+00
1.039413797299662434e+01
-3.689723124417272793e+00
-1.376754569039903409e+01
-6.004962773124953301e+00
2.792766571323147762e+00
-1.300990299323310850e+01
-5.687069081783143076e+00
-1.189714901120297164e+01
8.560121374873428834e+00
-6.783291512828961700e+00
4.694365648947846026e+00
-4.265858897850545617e+00
7.735444600852007468e+00
1.019753425655356338e+01
1.453714704396576707e+01
-8.813848343776761851e+00
4.557829014620065955e+00
4.171662310114402139e+00
-4.240695416741152357e+00
1.452271541639680130e+01
-1.819185828291395524e+01
-4.925014327102113398e+00
-9.381682360217087790e+00
-1.294938929526214899e+01
-1.742126190107727268e+01
-1.653335123232255199e+01
1.097081822153382624e-01
1.735194772104748395e+01
-3.195779752825602671e+00
1.910341149355028634e+00
8.953676084332121476e+00
-5.837376966642535692e+00
1.879444213587149903e+01
-1.647634483742827882e+01
9.741714798596419200e+00
-4.427531326337081019e+00
-1.797568732902623267e+01
1.394565207982468991e+01
-8.546578954475501533e+00
-3.239161238063295034e+00
-1.685431075517961119e+01
1.063955804705003771e+01
4.581856230032036237e+00
1.033857715943103273e+01
-1.377282497789526605e+00
2.466990296132687721e+00
-1.650931906488241196e+01
-6.139233046402375216e+00
-7.415168644834838396e+00
-1.192907956595986718e+01
-6.208250839320826886e-01
-1.574776269267043061e+00
2.312883559329417249e-01
-6.988973700721857085e+00
9.995950758650391066e+00
1.436937606956759161e+01
5.562060072246675979e+00
-1.432888846090484236e+01
-1.022294046952723079e+01
-2.785224628796488133e+00
-4.630219467025984414e+00
-2.278990117295215612e+00
-9.539751338927361379e-01
8.928136541228106182e+00
-1.469188486914331460e+00
4.753444871002042049e+00
-1.610846535286500725e+01
1.927170470349326337e+01
1.963940434225601050e+00
2.520396226186134570e+00
1.214382581107443215e+01
-1.220873171603346918e+01
-4.499339875099032326e+00
-1.176832167800576201e+01
-3.329825513842623597e-01
1.334400203669179419e+01
-1.401465719723480063e+01
-8.581334191650892507e+00
1.031590275321061689e+01
1.500681751581089962e+01
-9.757391617385852811e+00
1.568711608617253717e+01
-1.892257401504674519e+01
-3.221378603444450484e+00
-1.197280119052927461e+01
-1.441684273288563389e+01
1.021579731902538057e+01
-1.360430345811896125e+01
6.935294318176966399e+00
4.611177094778158292e+00
1.630356396893595772e+01
1.134822438612066264e+01
1.265905356252110536e+01
6.586973892869496083e+00
1.438129096425589992e+01
3.970331026537949892e+00
-7.048869723592940062e+00
1.108773477074313973e+01
4.758784643484060162e+00
-5.500979951589109795e+00
6.981271286159316247e+00
-6.215236539581185937e+00
3.610010380610776615e+00
4.446813833559151163e+00
-5.124103811228387428e+00
-6.958888307116494865e+00
-3.028814460750710591e+00
-5.837548348209478100e+00
4.069586849258216787e+00
-8.848947234445979859e+00
-1.604918808312340062e+01
-2.011648495888599797e+01
1.251331229985829729e+01
-6.615861167174431401e+00
-9.251618230463586556e+00
-1.456083005318424028e+01
-6.102962836621519394e+00
1.891316902303444181e+01
-1.827566353397467314e+00
1.043664415720803706e+00
2.204609782139243634e+00
1.242444325287262252e+01
1.523961748022880869e+01
-3.264975398487622193e+00
1.412539197789960177e+00
4.070540383357251102e+00
2.839180848328300311e+00
-1.246983422274638720e+01
-2.454427857834589055e+00
-3.664863177915930859e+00
1.184580258848363421e+01
1.155687199757812422e+01
-1.442172655277300208e+00
8.150306019238149347e+00
-1.519929465303946792e+00
-1.967339123015940494e+00
1.273981865179191786e+01
7.689654242724759392e+00
6.521466477782617233e+00
-7.060007799385846772e-01
-4.877602336030581576e+00
-1.182367683748208620e+01
-1.566599634838222954e+01
2.085281886783486982e+01
-1.678131642623403641e+00
-4.699250918134508237e-01
2.372960231087523741e+00
4.208999833173427518e+00
2.603538374734731153e+00
6.956221824683214372e+00
-4.655757123188307922e+00
3.448452399786822831e+00
-1.340220741681559247e+01
-1.785457025424695754e+00
1.108436058399171742e+01
-1.598048581613183572e+01
1.556761997661781116e+01
-1.092463565332544739e+01
5.321779670921094052e+00
-2.008863543751943581e+01
-9.957240537494486787e+00
3.604843758462083159e+00
1.475236715340223714e+00
-3.971270526566284431e+00
5.729799856694106630e-01
5.127490056544043995e-01
-1.189829779074836225e+01
6.714714568011016738e+00
-1.078733163776884219e+01
9.131190204515057252e-01
2.193955506810879541e+01
-6.299816955272335761e+00
-1.597041457137248877e+01
1.330993127730819658e+01
-1.767851678933057968e+01
-1.438032501619013104e+01
-4.879387528093279691e+00
6.156714265595926605e+00
-8.539803103457217492e-01
5.273123080108893745e+00
1.002835008409602224e+01
1.067155853159077239e+01
1.950316529342507366e+01
-1.265346506520479863e+01
-6.795276786702972416e+00
-7.001358688733668956e+00
-8.032459946417843000e+00
-2.995285257646493338e-01
-1.015953962801008004e+01
-1.072528720685581582e+01
-5.267841539110051485e+00
-1.628469174155107613e+00
1.005120487730259882e+01
-1.288213223591721324e+01
7.738674095616037363e+00
-4.768039772704966595e+00
-1.951819519205702846e+00
1.535647065178181592e+01
3.088083049840964378e+00
-1.053804858967956726e+01
-4.126993394146466265e+00
3.466462040979060300e-01
3.352150130594230282e-01
-3.221572840743551325e+00
-7.862898854700705265e+00
-4.465999720409510765e+00
-1.325780683703647433e+00
-3.418006402387668174e+00
6.986349731174612998e+00
1.623434132475929204e+01
1.364613480049251537e+00
-2.242375413534830386e+00
-9.167367070735437551e+00
-1.150635148312634115e+01
5.266123347048518255e+00
8.913080246586194022e+00
8.127025099727051227e+00
-1.801351218419738609e-01
1.104626431201788606e+01
-7.329922298348414245e+00
-9.195317677346862340e+00
9.772770394528958349e+00
-1.451415299730873798e+01
-1.596965754673262872e+01
5.298420205866410937e-01
-7.123478765424260395e+00
-7.380295377322416250e+00
5.650460115919488047e+00
-9.019728468936541788e+00
-9.673833776592921652e+00
-1.080858136569586847e+01
-3.852458274338684152e+00
-1.476676709339903226e+01
-4.440536496641235287e-01
1.550993274452433823e+01
-8.680071406660404776e+00
-1.935418820677085039e+00
1.706318395688118272e+01
-2.677126614435053842e+00
-1.468708385085824020e+01
-2.021860545457452751e+00
-3.445744666518021582e+00
7.911877414590490432e+00
1.271156389518455576e+01
-9.313460683051079769e+00
4.806588379934940036e+00
-1.080664115708845507e+01
2.618481181256643975e+00
-3.725297785550206520e+00
7.548500225762000859e+00
1.311267763368441486e+01
4.611793506660493591e+00
-9.315100575059801713e+00
8.139732986528454006e+00
-1.496626677912739467e+01
2.836986072074424992e-01
-7.765319627100582878e+00
