1.190899003442128290e+01
-1.030660069229594811e+01
-1.173934750376536940e+01
1.623209465919753791e-01
1.151475815971471839e+01
9.057228372034715758e-01
1.046392602557089191e+01
1.627854975780408608e+01
2.538616137972988351e+00
1.537581675185973218e+01
-1.216202595518915786e+01
1.278362287443230194e+01
-2.623982317502237205e+00
5.367180211689776215e+00
-1.405908997679028083e+01
1.027407952627316945e+01
-5.076570420983921306e-01
1.034988408596245435e+01
-1.491722688014053944e+00
-5.323127028774957026e+00
-1.150404111995835876e+01
2.274118392792167320e+00
1.603093997951913252e+01
-8.130110468745145313e-01
-4.878946849735926961e+00
-6.471436892646361017e+00
6.766495457912964362e+00
7.286871075905709816e+00
-9.513986449533877732e+00
1.273203389471587244e+01
-6.770717328966509463e+00
-1.203657409332967809e+01
2.178282793837809983e+00
2.081204748285620099e+01
6.597582359602644608e+00
-4.875215391366195306e+00
-6.861383790620578793e+00
8.156025295286137844e-01
3.333397545340151868e+00
-5.187418567147090265e+00
9.995534054124137313e+00
-1.640106982843020589e+01
2.645705994529195415e+00
-1.645199065799269222e+00
-1.549067285333356025e+01
9.078861648423689701e+00
1.863389505682233049e-01
-9.213000433372931397e+00
-3.131141812376229794e+00
-1.482918038957956597e+00
-6.216954614023953773e+00
1.069697317979639450e+01
5.140745391464012215e+00
-7.098847361876039486e+00
-1.280598744046676529e+01
1.413069453886890514e+01
1.091434911711857048e+01
1.160539608471925721e+00
-1.848712832221279356e+01
-5.478196655621015765e+00
-6.942348713639244551e+00
-2.795213838307573084e+00
-5.843944965379128220e+00
-8.663277877299481178e-01
1.167308494401855690e+01
-1.068261476643346342e+01
1.175335266762845876e+01
-8.025890925158183364e+00
-1.055361874632237473e+01
7.065683604441277410e+00
1.230592762177041344e+01
-6.812553634220781973e+00
1.752952640888076230e+00
-9.684809203456751447e+00
-4.144309821885731715e+00
-8.571768855796331188e-01
1.310955341135929508e+01
-1.165891173721567498e+01
5.312063027714877705e+00
-6.607681205488696641e+00
-4.512519454056972967e-01
-1.287957924157163347e+01
7.900925598048230469e+00
1.529694777187858845e+00
-1.829616555905684061e+00
8.739824753400723623e+00
-1.335703730595154148e+01
-1.897170771018807101e-01
1.180838612545884914e+01
2.399270635227670034e+00
1.609223689205669316e+01
-1.296254961696017460e+01
-2.886878412043073716e+00
1.042181391405721413e+00
6.029432434774694372e+00
-1.192513357532569707e+01
-1.148815857757234760e+01
-4.368892530272907138e+00
-5.651582621828845632e+00
1.003441081502193555e+01
-6.251330288528325063e+00
1.339554777818491971e+01
7.738048094751594164e+00
-1.491688153444023612e+01
9.668342092676693866e+00
-5.856447347130893988e+00
-1.096265940341121947e+01
-4.674761161265705844e+00
3.778528844793451746e+00
-1.603536468814465765e+00
5.437979153794021414e+00
1.810590732867439545e+00
1.689166513614341270e+01
4.327969402352179529e+00
5.640145321710676729e-01
8.365443307275350904e+00
4.469872965255017760e+00
-9.450730988117346243e+00
9.432073065191154626e+00
2.259702345535452017e-01
6.334570608557497984e+00
-9.374750507154832491e+00
-2.610149163679085671e+00
6.284972915055904608e+00
-6.480869555493061540e+00
1.160454694849493595e+00
2.355288999286269114e+00
-2.766652167788021810e+00
2.145663029746897266e+00
-1.388054928559972190e+01
-7.398446667624707374e+00
-1.738417724587090163e+01
-6.694263985316348808e-01
1.235137022329058532e+01
9.967904011945723397e+00
-1.911424184174872209e+01
7.019932007867648593e-01
-1.794650597849864937e+01
-7.429253754471394799e+00
-1.815475995079167504e+01
1.512626140086419824e+01
9.301153852239103514e+00
-4.866583948895518041e+00
-1.676565591562918556e+01
6.124376881501968128e+00
1.066272672000165578e+01
6.955243244583257933e+00
1.475654558024198337e+01
1.036039898161782880e+01
-4.736954353403827866e+00
-9.992216037240211346e-01
1.353746013787778679e+01
6.709559742606574950e+00
1.084998666908428971e-01
-1.077901481966535258e+01
5.437322932407024467e+00
7.252951869816664399e+00
1.072114084933052069e+01
2.842188376146270290e+00
-6.419053419076246492e+00
-8.924260935466790556e+00
-5.981801485202709046e+00
-1.882887855171679092e+01
-4.760054589365378064e+00
-2.716866323541144546e+00
7.480159992773803168e+00
-3.377873446346928987e-01
1.043074734997877862e+01
-2.146367714221038980e+01
-8.919695546689354160e+00
1.744365640396863926e+00
-1.519556135837305177e+01
3.790545407804416733e+00
1.899877910536125114e+01
7.551936950851134256e+00
8.507878117859243972e+00
1.773759193119212707e+00
-1.924808669311862985e+01
-1.264114791499164525e+01
-1.424608303087153516e+01
-1.929377789364591589e+00
5.450451339639570847e+00
-9.142377161878883385e+00
-1.337464935781224540e+01
1.847216817480373585e+00
-6.066108842454234207e+00
1.272987148661806245e+01
-1.571316685199895069e+01
-5.789747963365665662e+00
6.962857885344082121e+00
-1.469983419831179106e+01
-1.494473954104975633e+01
-1.413419975696987052e+01
-1.250577174375640332e+01
5.029232654712242123e+00
1.352346148827103001e+01
1.796336700957955301e+01
-9.564488232838284532e+00
3.809811432315129753e+00
3.437834922922355929e+00
1.974050736030683240e+01
1.163085735545489641e+01
1.043479718887517116e+01
-1.045305782470905953e+01
8.971395794450927497e+00
3.208834074370698008e+00
9.567616374059140227e+00
-6.611490169497495017e+00
7.248741067462093568e+00
-1.032851137117057450e+00
-1.291857050324806577e+00
-2.306517720705713703e+00
-5.405079892648561035e+00
4.512205335830726582e+00
5.505663276786719962e+00
-4.208398608258782758e+00
2.110737733285894890e+01
5.547447807633234085e+00
8.355879360665722899e+00
1.191001474755815792e+01
4.411584347441142029e-01
-8.942211714710224246e-02
7.252790331122290768e-01
1.206679465005253604e+01
-1.166759878046592291e+01
-1.778000756274894512e+00
1.607291902220743651e+01
4.995767195500451230e+00
-1.828298509042133091e+00
-1.330579040769622878e+01
1.603802965819311410e+01
1.241007953114504403e+01
-1.044364543091148789e+01
-8.833679259579112042e+00
1.580159773577737425e+01
-2.775037273082435085e+00
-1.396561112048450326e+01
-2.004590387928452955e-01
2.019645946902504008e+01
-1.791602271578738836e+01
9.829393354018524320e+00
8.137976797610251722e+00
-1.287929071675184556e+00
-1.576318603800615392e+01
1.371520650048608658e+01
-3.471279360277021109e+00
-7.949133066144094428e+00
-1.425702200722893664e+00
-7.333250365335531207e+00
-1.163226669602847352e+01
1.485107736054518668e+01
4.235979564912378259e-01
-7.664903785341228293e+00
1.049589621630866709e+01
5.914881960114257708e+00
-9.108579195675023499e+00
-8.233364452885384210e+00
-9.830302528453923827e+00
-1.402761977308277608e+01
-1.450390104659681878e+00
-1.614803681425074089e+01
1.669774213861193601e+01
1.513086197278657119e+00
1.154878209553256951e+01
5.580309485600569719e-01
